svm_type c_svc
kernel_type rbf
gamma 0.0030864197530864196
nr_class 8
total_sv 1012
rho 0.0072697103023529053 -0.0026685499858595946 -0.025676696899053063 0.00063627665656098924 -0.053945366845244404 -0.070147348553268693 -0.016134200084643058 0.020112451579131153 -0.013318879867110986 -0.00018708670028844926 -0.041101471392854999 -0.032065921943695355 -0.017983738832469974 -0.019980765493141546 -0.025113865940211789 -0.037160925564995756 -0.035557906937482238 -0.035274541195947529 0.0041866768010480667 -0.0246753990650177 -0.029276788234710693 0.0056762129962272057 -0.023359626531600952 -0.038932135814718306 -0.011168329856033799 -0.01150531066493299 0.010484129190444946 0.024312989235272996
label 1 2 3 4 5 6 7 8
probA -4.9368590070417735 -4.9677201797932353 -5.0096864614225636 -4.9633872627610618 -5.023746688541685 -5.2064844958975334 -4.9441298802029277 -5.1715251481950659 -5.0370754427115347 -4.9580571475395221 -5.0099042593558218 -4.9932290441907208 -5.0325380929113646 -5.0440978740155309 -5.3199741717043905 -5.0311625171177026 -4.9919229669348617 -5.0492386674744303 -4.9699273721793418 -5.0952253592687544 -5.0420302466505147 -5.0069832806125669 -5.0348764716157204 -4.9941725949699833 -5.0358387589562135 -5.8511875324442624 -5.0324467089113005 -5.0183680898594405
probB 0.015018376626813736 0.0054663187005184483 0.0064383484870093651 0.0029959547050493218 0.012730432886130469 -0.099688455383341854 0.018909687476513778 -0.06268236587845992 -0.017300961094091356 0.0050984144545970422 -0.0025015885480779531 -0.0013732351622538943 -0.021102659020238501 -0.014851079124431971 -0.065471061168966532 -0.0027181185280343023 -0.0060082040487392406 -0.0001121033893887426 0.0032845834952996674 -0.016984987849875333 -0.010896321165254541 -0.0067635197687391287 -0.010042629503940814 0.013355481365181613 0.0095979571338080105 -0.13706108552832055 0.010293980963724209 0.0011634989553783452
nr_sv 105 102 143 113 125 148 148 128
SV
0 0 1 0 1 1 0 1:0.168825 2:0.078174 3:0.170415 4:0.149295 5:0.29207 6:0 7:0.0158014 8:0.00528056 9:0.137096 10:0.238088 11:0.0426829 12:0.184923 13:0.149694 14:0.29207 15:0 16:0.0948083 17:0.0316834 18:0.214291 19:0.021099 20:0.0748061 21:0.29207 22:0.284889 23:0.29207 24:0 25:0.0181254 26:0.0060572 27:0.0158107 28:0.111138 29:0.106358 30:0.29207 31:0.29207 32:0.29207 33:0 34:0.0545309 35:0.0182233 36:0.0954933 37:0.130051 38:0 39:0.171006 40:0.13015 41:0.324017 42:0 43:0.117585 44:0.0392949 45:0.130051 46:0 47:0 48:0 49:0 50:0 51:0 52:0 53:0 54:0 55:0.324017 56:0.190415 57:0.293388 58:0.324017 59:0.324017 60:0 61:0.0467231 62:0.0156141 63:0.324017 64:0.324017 65:0.0777494 66:0.00692236 67:0 68:0 69:0 70:0.0123267 71:0.188329 72:0.324017 73:0 74:0 75:0 76:0 77:0 78:0 79:0 80:0 81:0 82:0 83:0 84:0 85:0 86:0 87:0 88:0 89:0 90:0 91:0.367027 92:0.367027 93:0.0416078 94:0 95:0 96:0 97:0.0318784 98:0.367027 99:0.367027 100:0.367027 101:0.219344 102:0.0235582 103:0 104:0 105:0 106:0.0442275 107:0.367027 108:0.367027 109:0.0445477 110:0.0780463 111:0.275136 112:0.275136 113:0.275136 114:0 115:0.0540711 116:0.0180697 117:0.0445477 118:0.275136 119:0.249189 120:0.22272 121:0.251768 122:0.275136 123:0 124:0.135178 125:0.0451741 126:0.275136 127:0.166476 128:0.0238109 129:0.0934827 130:0.136078 131:0.275136 132:0.0100226 133:0.0310731 134:0.0555913 135:0.179778 136:0.275136 137:0.086781 138:0.0125308 139:0.016448 140:0.060546 141:0 142:0.0540711 143:0.0261177 144:0.275136 145:0.32374 146:0.223193 147:0.0661495 148:0.08208 149:0.0927266 150:0 151:0.0348331 152:0.0116407 153:0.32374 154:0.32374 155:0.0998413 156:0.0088893 157:0 158:0 159:0 160:0.0158293 161:0.241841 162:0.32374 163:0.32374 164:0.0852828 165:0.00646971 166:0.00423838 167:0.00870784 168:0 169:0.0139332 170:0.00615792 171:0.32374 172:0.32374 173:0.0399365 174:0.00355572 175:0 176:0 177:0 178:0.00633172 179:0.0967363 180:0.32374 181:0.296048 182:0.238199 183:0.0255833 184:0 185:0 186:0 187:0.019601 188:0.296048 189:0.296048 190:0.296048 191:0.134868 192:0.0144852 193:0 194:0 195:0 196:0.0271941 197:0.296048 198:0.296048 199:0.296048 200:0.0952798 201:0.0102333 202:0 203:0 204:0 205:0.0078404 206:0.124484 207:0.296048 208:0.296048 209:0.0539471 210:0.00579408 211:0 212:0 213:0 214:0.0108776 215:0.126014 216:0.296048 217:0.334895 218:0.0205867 219:0.00417859 220:0.0156791 221:0.215743 222:0.0263816 223:0.0248605 224:0.183241 225:0.334895 226:0.334895 227:0.01544 228:0 229:0 230:0 231:0 232:0 233:0.0375127 234:0.334895 235:0.334895 236:0.01544 237:0 238:0 239:0.0168235 240:0.0105526 241:0.00994419 242:0.118274 243:0.334895 244:0.334895 245:0.01158 246:0 247:0 248:0 249:0 250:0 251:0.0281345 252:0.334895 253:0.352919 254:0 255:0 256:0 257:0 258:0 259:0 260:0.00631613 261:0.352919 262:0.352919 263:0 264:0 265:0 266:0 267:0 268:0 269:0 270:0.352919 271:0.352919 272:0 273:0 274:0 275:0 276:0 277:0 278:0.0047371 279:0.352919 280:0.352919 281:0 282:0 283:0 284:0 285:0 286:0 287:0 288:0.352919 289:0.35293 290:0 291:0 292:0 293:0 294:0 295:0 296:0 297:0.35293 298:0.35293 299:0 300:0 301:0 302:0 303:0 304:0 305:0 306:0.35293 307:0.35293 308:0 309:0 310:0 311:0 312:0 313:0 314:0 315:0.35293 316:0.35293 317:0 318:0 319:0 320:0 321:0 322:0 323:0 324:0.35293 
0 0 0 0 1 1 0 1:0.16793 2:0.0432446 3:0.193119 4:0.216423 5:0.286757 6:0.00961409 7:0.00778061 8:0.0114218 9:0.126985 10:0.234762 11:0.0253759 12:0.166794 13:0.214716 14:0.286757 15:0.0576845 16:0.0466836 17:0.0685307 18:0.204054 19:0.0263228 20:0.0626461 21:0.286757 22:0.272524 23:0.286757 24:0.0177386 25:0.00485947 26:0.00190363 27:0.0194987 28:0.128714 29:0.00893438 30:0.274485 31:0.286757 32:0.286757 33:0.0658619 34:0.0166874 35:0.0114218 36:0.123596 37:0.127447 38:0 39:0.133919 40:0.177852 41:0.316012 42:0.0743936 43:0.0602061 44:0.0883815 45:0.127447 46:0 47:0 48:0 49:0 50:0 51:0 52:0 53:0 54:0 55:0.316012 56:0.0340248 57:0.311558 58:0.316012 59:0.316012 60:0.0686722 61:0.0340759 62:0.0243634 63:0.316012 64:0.316012 65:0.135767 66:0.247411 67:0 68:0 69:0 70:0.105328 71:0.0577991 72:0.316012 73:0 74:0 75:0 76:0 77:0 78:0 79:0 80:0 81:0 82:0 83:0 84:0 85:0 86:0 87:0 88:0 89:0 90:0 91:0.473942 92:0.14188 93:0.258551 94:0 95:0 96:0 97:0.0670469 98:0.0367921 99:0.473942 100:0.473942 101:0.0117821 102:0.0214708 103:0 104:0 105:0 106:0.0345121 107:0.0465039 108:0.473942 109:0.0414763 110:0.0912149 111:0.304839 112:0.166435 113:0.304839 114:0.0436307 115:0.0120582 116:0 117:0.0414763 118:0.304839 119:0.00173523 120:0.183141 121:0.260748 122:0.304839 123:0.124474 124:0.0301454 125:0 126:0.304839 127:0.139244 128:0.100512 129:0.171264 130:0.0766135 131:0.304839 132:0.0414188 133:0.0107322 134:0.0372125 135:0.139244 136:0.304839 137:0.0272443 138:0.0238 139:0.005639 140:0.057182 141:0.0436307 142:0.0136242 143:0.00986254 144:0.304839 145:0.318892 146:0.0390114 147:0.119061 148:0.0794749 149:0.117346 150:0.0357295 151:0.027565 152:0.011045 153:0.318892 154:0.318892 155:0.155664 156:0.283671 157:0 158:0 159:0 160:0.120765 161:0.06627 162:0.318892 163:0.318892 164:0.0188402 165:0.0337549 166:0.00139125 167:0.00997238 168:0.0116011 169:0.011026 170:0.004418 171:0.318892 172:0.318892 173:0.0622658 174:0.113468 175:0 176:0 177:0 178:0.048306 179:0.026508 180:0.318892 181:0.339838 182:0.114163 183:0.208042 184:0 185:0 186:0 187:0.053949 188:0.0296046 189:0.339838 190:0.339838 191:0.00948043 192:0.0172764 193:0 194:0 195:0 196:0.02777 197:0.0374191 198:0.339838 199:0.339838 200:0.0456653 201:0.0832169 202:0 203:0 204:0 205:0.0215796 206:0.0118418 207:0.339838 208:0.339838 209:0.00379217 210:0.00691056 211:0 212:0 213:0 214:0.011108 215:0.0149677 216:0.339838 217:0.301776 218:0.299626 219:0.0640798 220:0.0114218 221:0.301776 222:0.0668015 223:0.027967 224:0.176127 225:0.301776 226:0.301776 227:0.128947 228:0.0204753 229:0 230:0 231:0 232:0.00741218 233:0.0466794 234:0.301776 235:0.25268 236:0.22255 237:0.0353384 238:0 239:0.0449761 240:0.0267206 241:0.0209753 242:0.132095 243:0.25268 244:0.301776 245:0.0967103 246:0.0153565 247:0 248:0 249:0 250:0.00555913 251:0.0350096 252:0.301776 253:0.352869 254:0.014607 255:0.00231942 256:0 257:0 258:0 259:0 260:0 261:0.352869 262:0.352869 263:0 264:0 265:0 266:0 267:0 268:0 269:0 270:0.352869 271:0.352869 272:0.0109552 273:0.00173956 274:0 275:0 276:0 277:0 278:0 279:0.352869 280:0.352869 281:0 282:0 283:0 284:0 285:0 286:0 287:0 288:0.352869 289:0.35293 290:0 291:0 292:0 293:0 294:0 295:0 296:0 297:0.35293 298:0.35293 299:0 300:0 301:0 302:0 303:0 304:0 305:0 306:0.35293 307:0.35293 308:0 309:0 310:0 311:0 312:0 313:0 314:0 315:0.35293 316:0.35293 317:0 318:0 319:0 320:0 321:0 322:0 323:0 324:0.35293 
0 0 0 0 1 1 0 1:0.130343 2:0.14987 3:0.289693 4:0.0220295 5:0.297955 6:0.00928782 7:0.0168729 8:0.00418561 9:0.112443 10:0.19445 11:0.0948029 12:0.229585 13:0.0998926 14:0.297955 15:0.0557269 16:0.101237 17:0.0251136 18:0.206649 19:0.0207863 20:0.0885794 21:0.297955 22:0.185602 23:0.297955 24:0.00371513 25:0.0167683 26:0.00748003 27:0.0178464 28:0.118213 29:0.0783494 30:0.297955 31:0.28364 32:0.297955 33:0.0222907 34:0.0517634 35:0.0242082 36:0.116501 37:0.105063 38:0.0255641 39:0.164051 40:0.114309 41:0.336666 42:0.0689561 43:0.12527 44:0.0310755 45:0.133385 46:0 47:0 48:0 49:0 50:0 51:0 52:0 53:0 54:0 55:0.336666 56:0.124378 57:0.336666 58:0.270535 59:0.336666 60:0.0275824 61:0.0452591 62:0.0220021 63:0.336666 64:0.336666 65:0.0907987 66:0.102389 67:0 68:0 69:0 70:0.0358483 71:0.0196718 72:0.336666 73:0 74:0 75:0 76:0 77:0 78:0 79:0 80:0 81:0 82:0 83:0 84:0 85:0 86:0 87:0 88:0 89:0 90:0 91:0.480555 92:0.0809911 93:0.123137 94:0 95:0 96:0 97:0.136663 98:0.074994 99:0.480555 100:0.480555 101:0.0706352 102:0.12872 103:0 104:0 105:0 106:0.0546652 107:0.0299976 108:0.480555 109:0.0402875 110:0.0433318 111:0.290098 112:0.290098 113:0.290098 114:0 115:0.0457418 116:0.0209796 117:0.040368 118:0.290098 119:0.0569166 120:0.240486 121:0.179945 122:0.290098 123:0 124:0.114354 125:0.0581248 126:0.290098 127:0.208445 128:0.0131774 129:0.127034 130:0.10103 131:0.290098 132:0 133:0.0429721 134:0.0162596 135:0.208459 136:0.290098 137:0.00884484 138:0.0243561 139:0.0141193 140:0.0564204 141:0 142:0.0457418 143:0.0209796 144:0.290098 145:0.333885 146:0.102253 147:0.192341 148:0.0542093 149:0.111104 150:0 151:0.0300599 152:0.0172505 153:0.333885 154:0.333885 155:0.111949 156:0.126239 157:0 158:0 159:0 160:0.0441987 161:0.0242541 162:0.333885 163:0.333885 164:0.0371152 165:0.0573585 166:0.00371148 167:0.00795889 168:0 169:0.012024 170:0.0058434 171:0.333885 172:0.333885 173:0.0447796 174:0.0504958 175:0 176:0 177:0 178:0.0176795 179:0.00970165 180:0.333885 181:0.340263 182:0.0639409 183:0.0972142 184:0 185:0 186:0 187:0.107893 188:0.0592063 189:0.340263 190:0.340263 191:0.0557651 192:0.101622 193:0 194:0 195:0 196:0.0431571 197:0.0236825 198:0.340263 199:0.340263 200:0.0255764 201:0.0388857 202:0 203:0 204:0 205:0.0431571 206:0.0236825 207:0.340263 208:0.340263 209:0.069463 210:0.126584 211:0 212:0 213:0 214:0.0172628 215:0.009473 216:0.340263 217:0.337199 218:0 219:0.00955691 220:0.000539516 221:0.283905 222:0 223:0.0653095 224:0.0218253 225:0.337199 226:0.337199 227:0 228:0 229:0 230:0 231:0 232:0 233:0 234:0.337199 235:0.337199 236:0 237:0 238:0 239:0.0285012 240:0 241:0.0261238 242:0.00873011 243:0.337199 244:0.337199 245:0 246:0 247:0 248:0 249:0 250:0 251:0 252:0.337199 253:0.35293 254:0 255:0 256:0 257:0 258:0 259:0 260:0 261:0.35293 262:0.35293 263:0 264:0 265:0 266:0 267:0 268:0 269:0 270:0.35293 271:0.35293 272:0 273:0 274:0 275:0 276:0 277:0 278:0 279:0.35293 280:0.35293 281:0 282:0 283:0 284:0 285:0 286:0 287:0 288:0.35293 289:0.340664 290:0 291:0 292:0 293:0 294:0 295:0 296:0 297:0.340664 298:0.340664 299:0.116634 300:0.212544 301:0 302:0 303:0 304:0 305:0 306:0.340664 307:0.340664 308:0 309:0 310:0 311:0 312:0 313:0 314:0 315:0.340664 316:0.340664 317:0.0466536 318:0.0850178 319:0 320:0 321:0 322:0 323:0 324:0.340664 
0 0 0 0 0 1 0 1:0.17247 2:0.0825525 3:0.175636 4:0.125191 5:0.325331 6:0 7:0.0160699 8:0.00537028 9:0.141253 10:0.23934 11:0.0716575 12:0.165206 13:0.0529069 14:0.325331 15:0 16:0.0964191 17:0.0322216 18:0.221317 19:0.01907 20:0.0594324 21:0.325331 22:0.241357 23:0.325331 24:0.000636023 25:0.0212602 26:0.000895046 27:0.0180116 28:0.110166 29:0.118596 30:0.325331 31:0.0468874 32:0.325331 33:0.00159006 34:0.0625245 35:0.00537028 36:0.106267 37:0.114691 38:0.0328507 39:0.132427 40:0.0151536 41:0.353634 42:0 43:0.10649 44:0.0355871 45:0.119493 46:0 47:0 48:0 49:0 50:0 51:0 52:0 53:0 54:0 55:0.353634 56:0.235775 57:0.353634 58:0.0120145 59:0.353634 60:0.000991721 61:0.0467222 62:0.00593119 63:0.348572 64:0.353634 65:0.087584 66:0 67:0 68:0 69:0 70:0 71:0.0105724 72:0.353634 73:0 74:0 75:0 76:0 77:0 78:0 79:0 80:0 81:0 82:0 83:0 84:0 85:0 86:0 87:0 88:0 89:0 90:0 91:0.483995 92:0.0695213 93:0 94:0 95:0 96:0 97:0 98:0.0806696 99:0.483995 100:0.483995 101:0.207759 102:0 103:0 104:0 105:0 106:0 107:0.0604623 108:0.483995 109:0.0338893 110:0.0452761 111:0.292835 112:0.229303 113:0.292835 114:0.00211528 115:0.0617994 116:0 117:0.0476726 118:0.292835 119:0.18459 120:0.292835 121:0.014866 122:0.292835 123:0.0052882 124:0.154499 125:0 126:0.292835 127:0.159594 128:0.0278227 129:0.150789 130:0.108278 131:0.292835 132:0.0118634 133:0.041598 134:0.00671935 135:0.16685 136:0.292835 137:0.0822919 138:0.030418 139:0 140:0.0570534 141:0.00211528 142:0.0617994 143:0 144:0.292835 145:0.330071 146:0.24242 147:0.108339 148:0.00114674 149:0.152216 150:0.0013368 151:0.0390555 152:0 153:0.330071 154:0.330071 155:0.11806 156:0 157:0 158:0 159:0 160:0 161:0.0142511 162:0.330071 163:0.330071 164:0.110011 165:0.0107701 166:0 167:0.0089277 168:0.000534719 169:0.0156222 170:0 171:0.330071 172:0.330071 173:0.0566624 174:0 175:0 176:0 177:0 178:0 179:0.00570044 180:0.330071 181:0.3436 182:0.0525917 183:0 184:0 185:0 186:0 187:0 188:0.0610252 189:0.3436 190:0.3436 191:0.157166 192:0 193:0 194:0 195:0 196:0 197:0.0457387 198:0.3436 199:0.3436 200:0.0541957 201:0 202:0 203:0 204:0 205:0 206:0.0244101 207:0.3436 208:0.3436 209:0.122175 210:0 211:0 212:0 213:0 214:0 215:0.0182955 216:0.3436 217:0.334251 218:0.0316088 219:0.0105428 220:0.0164257 221:0.288578 222:0.0294033 223:0.0450451 224:0.0317553 225:0.334251 226:0.334251 227:0.0854158 228:0 229:0 230:0 231:0 232:0 233:0 234:0.334251 235:0.334251 236:0.021571 237:0 238:0 239:0.0376461 240:0.0117613 241:0.0180181 242:0.0238164 243:0.334251 244:0.334251 245:0.0640618 246:0 247:0 248:0 249:0 250:0 251:0 252:0.334251 253:0.350865 254:0.0748544 255:0 256:0 257:0 258:0 259:0 260:0 261:0.350865 262:0.350865 263:0.0429995 264:0 265:0 266:0 267:0 268:0 269:0 270:0.350865 271:0.350865 272:0.0561408 273:0 274:0 275:0 276:0 277:0 278:0 279:0.350865 280:0.350865 281:0.0322496 282:0 283:0 284:0 285:0 286:0 287:0 288:0.350865 289:0.346621 290:0.0852136 291:0 292:0 293:0 294:0 295:0 296:0 297:0.346621 298:0.346621 299:0.152415 300:0 301:0 302:0 303:0 304:0 305:0 306:0.346621 307:0.346621 308:0.0340855 309:0 310:0 311:0 312:0 313:0 314:0 315:0.346621 316:0.346621 317:0.0609659 318:0 319:0 320:0 321:0 322:0 323:0 324:0.346621 
0 1 1 1 1 1 1 1:0.119913 2:0.158756 3:0.236701 4:0.00209015 5:0.332986 6:0.0105957 7:0.0079847 8:0.0117214 9:0.125425 10:0.20113 11:0.100438 12:0.213277 13:0.0125409 14:0.332986 15:0.0635744 16:0.0479082 17:0.0703283 18:0.214911 19:0.0188613 20:0.10473 21:0.332986 22:0.0618905 23:0.332986 24:0.0110532 25:0.0141035 26:0.00195356 27:0.0261544 28:0.107561 29:0.0697248 30:0.332986 31:0.0851086 32:0.332986 33:0.0507681 34:0.0399165 35:0.0117214 36:0.148104 37:0.118979 38:0.0289941 39:0.157214 40:0.0154763 41:0.33901 42:0.0784552 43:0.059122 44:0.08679 45:0.128584 46:0 47:0 48:0 49:0 50:0 51:0 52:0 53:0 54:0 55:0.33901 56:0.110547 57:0.33901 58:0.0741771 59:0.33901 60:0.0566846 61:0.0493456 62:0.0239247 63:0.33901 64:0.33901 65:0.0980092 66:0.178604 67:0 68:0 69:0 70:0.201826 71:0.110752 72:0.33901 73:0 74:0 75:0 76:0 77:0 78:0 79:0 80:0 81:0 82:0 83:0 84:0 85:0 86:0 87:0 88:0 89:0 90:0 91:0.396163 92:0.0832072 93:0.15163 94:0 95:0 96:0 97:0.243748 98:0.133757 99:0.396163 100:0.396163 101:0.224047 102:0.396163 103:0 104:0 105:0 106:0.203534 107:0.11169 108:0.396163 109:0.0279414 110:0.0760823 111:0.306169 112:0.17633 113:0.306169 114:0.0194613 115:0.0429873 116:0 117:0.0493947 118:0.306169 119:0.017864 120:0.298342 121:0.0824784 122:0.306169 123:0.0644304 124:0.107468 125:0 126:0.306169 127:0.1422 128:0.0439434 129:0.179689 130:0.120616 131:0.306169 132:0.0322374 133:0.0192295 134:0.0128132 135:0.126253 136:0.306169 137:0.029967 138:0.0228455 139:0.00341364 140:0.0520324 141:0.0194613 142:0.0429873 143:0 144:0.306169 145:0.310612 146:0.0701632 147:0.197977 148:0.0223375 149:0.141507 150:0.0207812 151:0.0464762 152:0.0111327 153:0.310612 154:0.310612 155:0.115342 156:0.210191 157:0 158:0 159:0 160:0.237519 161:0.130339 162:0.310612 163:0.310612 164:0.0481068 165:0.0525735 166:0.000831867 167:0.00752915 168:0.00558922 169:0.0185905 170:0.00445308 171:0.310612 172:0.310612 173:0.0496932 174:0.0840764 175:0 176:0 177:0 178:0.0950077 179:0.0521356 180:0.310612 181:0.325682 182:0.0483719 183:0.0881492 184:0 185:0 186:0 187:0.141701 188:0.0777587 189:0.325682 190:0.325682 191:0.130248 192:0.237354 193:0 194:0 195:0 196:0.118323 197:0.06493 198:0.325682 199:0.325682 200:0.0193488 201:0.0352597 202:0 203:0 204:0 205:0.0566804 206:0.0311035 207:0.325682 208:0.325682 209:0.0520992 210:0.0949416 211:0 212:0 213:0 214:0.0473292 215:0.025972 216:0.325682 217:0.328048 218:0.0708317 219:0.0221962 220:0.010064 221:0.294493 222:0.065049 223:0.00918902 224:0.0578694 225:0.328048 226:0.328048 227:0.135342 228:0 229:0 230:0 231:0 232:0 233:0 234:0.328048 235:0.328048 236:0.0514768 237:0 238:0 239:0.0437962 240:0.0260196 241:0.00689177 242:0.043402 243:0.328048 244:0.328048 245:0.101507 246:0 247:0 248:0 249:0 250:0 251:0 252:0.328048 253:0.350009 254:0.101512 255:0 256:0 257:0 258:0 259:0 260:0 261:0.350009 262:0.350009 263:0.0161793 264:0 265:0 266:0 267:0 268:0 269:0 270:0.350009 271:0.350009 272:0.0761337 273:0 274:0 275:0 276:0 277:0 278:0 279:0.349928 280:0.350009 281:0.0121345 282:0 283:0 284:0 285:0 286:0 287:0 288:0.350009 289:0.35293 290:0 291:0 292:0 293:0 294:0 295:0 296:0 297:0.35293 298:0.35293 299:0 300:0 301:0 302:0 303:0 304:0 305:0 306:0.35293 307:0.35293 308:0 309:0 310:0 311:0 312:0 313:0 314:0 315:0.35293 316:0.35293 317:0 318:0 319:0 320:0 321:0 322:0 323:0 324:0.35293 
0 0 0 0 0 0.21415846656706378 0 1:0.13498 2:0.122753 3:0.301689 4:0.0282726 5:0.301689 6:0 7:0.0116934 8:0.00832439 9:0.102887 10:0.229973 11:0.0729333 12:0.264458 13:0.0783882 14:0.301689 15:0 16:0.0701606 17:0.0499463 18:0.187182 19:0.0169992 20:0.0836921 21:0.301689 22:0.201934 23:0.301689 24:0.000370095 25:0.0181088 26:0.0102005 27:0.0137489 28:0.104801 29:0.0705104 30:0.301689 31:0.245701 32:0.301689 33:0.00222057 34:0.0556746 35:0.0478737 36:0.0885196 37:0.130707 38:0.0227239 39:0.170116 40:0.0821441 41:0.34535 42:0 43:0.081559 44:0.0580607 45:0.114843 46:0 47:0 48:0 49:0 50:0 51:0 52:0 53:0 54:0 55:0.34535 56:0.162811 57:0.34535 58:0.214692 59:0.34535 60:0.00258133 61:0.0455719 62:0.0508337 63:0.34535 64:0.34535 65:0.0724096 66:0.0516997 67:0 68:0 69:0 70:0 71:0 72:0.34535 73:0 74:0 75:0 76:0 77:0 78:0 79:0 80:0 81:0 82:0 83:0 84:0 85:0 86:0 87:0 88:0 89:0 90:0 91:0.498753 92:0 93:0 94:0 95:0 96:0 97:0 98:0 99:0.498753 100:0.498753 101:0 102:0 103:0 104:0 105:0 106:0 107:0 108:0.498753 109:0.0212575 110:0.0712823 111:0.282498 112:0.282498 113:0.282498 114:0.000750277 115:0.0564126 116:0.0316379 117:0.0287909 118:0.282498 119:0.0777121 120:0.216979 121:0.176975 122:0.282498 123:0.00450166 124:0.148292 125:0.141976 126:0.282498 127:0.218686 128:0.0200071 129:0.0950492 130:0.159577 131:0.282498 132:0.0418768 133:0.0487443 134:0.0215656 135:0.211576 136:0.282498 137:0.0223417 138:0.0208309 139:0.0138509 140:0.0465062 141:0.000750277 142:0.0564126 143:0.0567905 144:0.282498 145:0.332564 146:0.172793 147:0.183975 148:0.0493212 149:0.127087 150:0.00195979 151:0.0388161 152:0.0553322 153:0.332564 154:0.332564 155:0.0973489 156:0.0695061 157:0 158:0 159:0 160:0 161:0 162:0.332564 163:0.332564 164:0.0667396 165:0.0567177 166:0.00340523 167:0.00716525 168:0.000326632 169:0.0142621 170:0.0221329 171:0.332564 172:0.332564 173:0.0389396 174:0.0278024 175:0 176:0 177:0 178:0 179:0 180:0.332564 181:0.35293 182:0 183:0 184:0 185:0 186:0 187:0 188:0 189:0.35293 190:0.35293 191:0 192:0 193:0 194:0 195:0 196:0 197:0 198:0.35293 199:0.35293 200:0 201:0 202:0 203:0 204:0 205:0 206:0 207:0.35293 208:0.35293 209:0 210:0 211:0 212:0 213:0 214:0 215:0 216:0.35293 217:0.344151 218:0 219:0.00412551 220:0.0254239 221:0.199164 222:0.0485062 223:0.0671696 224:0.0224469 225:0.344151 226:0.344151 227:0 228:0 229:0 230:0 231:0 232:0 233:0 234:0.344151 235:0.344151 236:0 237:0 238:0 239:0.0224 240:0.00652051 241:0.0268679 242:0.00897877 243:0.344151 244:0.344151 245:0 246:0 247:0 248:0 249:0 250:0 251:0 252:0.344151 253:0.35293 254:0 255:0 256:0 257:0 258:0 259:0 260:0 261:0.35293 262:0.35293 263:0 264:0 265:0 266:0 267:0 268:0 269:0 270:0.35293 271:0.35293 272:0 273:0 274:0 275:0 276:0 277:0 278:0 279:0.35293 280:0.35293 281:0 282:0 283:0 284:0 285:0 286:0 287:0 288:0.35293 289:0.35293 290:0 291:0 292:0 293:0 294:0 295:0 296:0 297:0.35293 298:0.35293 299:0 300:0 301:0 302:0 303:0 304:0 305:0 306:0.35293 307:0.35293 308:0 309:0 310:0 311:0 312:0 313:0 314:0 315:0.35293 316:0.35293 317:0 318:0 319:0 320:0 321:0 322:0 323:0 324:0.35293 
0 0 0 0 1 1 0 1:0.176331 2:0.115543 3:0.225161 4:0.0767297 5:0.329059 6:0 7:0.0170334 8:0.0120892 9:0.119361 10:0.198977 11:0.120194 12:0.247465 13:0.0336108 14:0.329059 15:0 16:0.1022 17:0.0725354 18:0.186306 19:0.0224165 20:0.0814035 21:0.329059 22:0.171995 23:0.329059 24:0 25:0.0028389 26:0.00922643 27:0.0233739 28:0.160267 29:0.0892461 30:0.253588 31:0.0955643 32:0.329059 33:0 34:0.0170334 35:0.0255309 36:0.165518 37:0.0703837 38:0.073679 39:0.241085 40:0.00353927 41:0.362858 42:0 43:0.123881 44:0.0879231 45:0.113971 46:0 47:0 48:0 49:0 50:0 51:0 52:0 53:0 54:0 55:0.362858 56:0.160847 57:0.209694 58:0.05664 59:0.362858 60:0 61:0.0206469 62:0.0304741 63:0.362858 64:0.362858 65:0.107221 66:0 67:0 68:0 69:0 70:0 71:0.126073 72:0.362858 73:0 74:0 75:0 76:0 77:0 78:0 79:0 80:0 81:0 82:0 83:0 84:0 85:0 86:0 87:0 88:0 89:0 90:0 91:0.490296 92:0.137239 93:0 94:0 95:0 96:0 97:0 98:0.11367 99:0.490296 100:0.490296 101:0.0422741 102:0 103:0 104:0 105:0 106:0 107:0 108:0.490296 109:0.0330989 110:0.0521821 111:0.298984 112:0.298984 113:0.298984 114:0 115:0 116:0.0312564 117:0.0606271 118:0.298984 119:0.0887176 120:0.133578 121:0.128638 122:0.298984 123:0 124:0 125:0.078141 126:0.298984 127:0.216537 128:0.0344553 129:0.0777532 130:0.181993 131:0.298984 132:0.050645 133:0.0187843 134:0.0165278 135:0.20441 136:0.298984 137:0.0190172 138:0 139:0.0178542 140:0.042168 141:0 142:0 143:0.0312564 144:0.298984 145:0.333046 146:0.141566 147:0.0299508 148:0.030562 149:0.159107 150:0 151:0 152:0.0325309 153:0.333046 154:0.333046 155:0.13758 156:0 157:0 158:0 159:0 160:0 161:0.161771 162:0.333046 163:0.333046 164:0.0526226 165:0 166:0.00427579 167:0.00615642 168:0 169:0 170:0.0130124 171:0.333046 172:0.333046 173:0.0922063 174:0 175:0 176:0 177:0 178:0 179:0.066899 180:0.333046 181:0.34688 182:0.109507 183:0 184:0 185:0 186:0 187:0 188:0.0907009 189:0.34688 190:0.34688 191:0.0337318 192:0 193:0 194:0 195:0 196:0 197:0 198:0.34688 199:0.34688 200:0.0965561 201:0 202:0 203:0 204:0 205:0 206:0.0412374 207:0.34688 208:0.34688 209:0.0393237 210:0 211:0 212:0 213:0 214:0 215:0.00198279 216:0.34688 217:0.345567 218:0.0854943 219:0.00369533 220:0.0308732 221:0.180138 222:0.0934726 223:0.0463439 224:0.0175857 225:0.345567 226:0.345567 227:0.00563157 228:0 229:0 230:0 231:0 232:0 233:0 234:0.345567 235:0.345567 236:0.0641207 237:0 238:0 239:0.0199876 240:0.0286804 241:0.0185376 242:0.0131892 243:0.320644 244:0.345567 245:0.00422368 246:0 247:0 248:0 249:0 250:0 251:0 252:0.345567 253:0.351236 254:0 255:0 256:0 257:0 258:0 259:0 260:0 261:0.351236 262:0.351236 263:0.0906016 264:0 265:0 266:0 267:0 268:0 269:0.00533882 270:0.351236 271:0.351236 272:0 273:0 274:0 275:0 276:0 277:0 278:0 279:0.351236 280:0.351236 281:0.0362406 282:0 283:0 284:0 285:0 286:0 287:0.00213553 288:0.351236 289:0.34823 290:0.138713 291:0 292:0 293:0 294:0 295:0 296:0.0130342 297:0.34823 298:0.34823 299:0.0679215 300:0 301:0 302:0 303:0 304:0 305:0.00521367 306:0.34823 307:0.34823 308:0.055485 309:0 310:0 311:0 312:0 313:0 314:0.00521367 315:0.34608 316:0.34823 317:0.0271686 318:0 319:0 320:0 321:0 322:0 323:0.00208547 324:0.34823 
0 0 0 0 1 1 0 1:0.108904 2:0.110713 3:0.32063 4:0.00745065 5:0.327659 6:0 7:0.00766382 8:0.0170906 9:0.131827 10:0.206346 11:0.087527 12:0.223715 13:0.0183247 14:0.327659 15:0 16:0.0459829 17:0.075289 18:0.20773 19:0.0160062 20:0.0873577 21:0.327659 22:0.0763039 23:0.327659 24:0.00201751 25:0.0182283 26:0.0041273 27:0.0198267 28:0.114873 29:0.110002 30:0.327659 31:0.0186695 32:0.327659 33:0.0121051 34:0.0505627 35:0.0157453 36:0.115104 37:0.119559 38:0.0310811 39:0.125293 40:0.0187036 41:0.363755 42:0 43:0.0489469 44:0.0744964 45:0.103667 46:0 47:0 48:0 49:0 50:0 51:0 52:0 53:0 54:0 55:0.363755 56:0.135056 57:0.363755 58:0.0131139 59:0.363755 60:0.0128853 61:0.0343592 62:0.014338 63:0.363755 64:0.363755 65:0.00638589 66:0.0116372 67:0 68:0 69:0 70:0 71:0 72:0.363755 73:0 74:0 75:0 76:0 77:0 78:0 79:0 80:0 81:0 82:0 83:0 84:0 85:0 86:0 87:0 88:0 89:0 90:0 91:0.498753 92:0 93:0 94:0 95:0 96:0 97:0 98:0 99:0.498753 100:0.498753 101:0 102:0 103:0 104:0 105:0 106:0 107:0 108:0.498753 109:0.0424269 110:0.0770746 111:0.298054 112:0.184672 113:0.298054 114:0.0040046 115:0.059353 116:0.00449507 117:0.0424269 118:0.298054 119:0.144975 120:0.298054 121:0.00756896 122:0.298054 123:0.0240276 124:0.149417 125:0.0112377 126:0.298054 127:0.149968 128:0.0710622 129:0.101338 130:0.130774 131:0.298054 132:0.0344059 133:0.0450738 134:0.0219022 135:0.164711 136:0.298054 137:0.0595552 138:0.101712 139:0 140:0.0547594 141:0.0040046 142:0.059353 143:0.00449507 144:0.298054 145:0.330819 146:0.113949 147:0.279347 148:0.00113638 149:0.141139 150:0.0102733 151:0.0364074 152:0.00271338 153:0.330819 154:0.330819 155:0.00901582 156:0.0164297 157:0 158:0 159:0 160:0 161:0 162:0.330819 163:0.330819 164:0.0416126 165:0.0798901 166:0 167:0.00736337 168:0.00171222 169:0.014386 170:0.00108535 171:0.330819 172:0.330819 173:0.00360633 174:0.00657189 175:0 176:0 177:0 178:0 179:0 180:0.330819 181:0.35293 182:0 183:0 184:0 185:0 186:0 187:0 188:0 189:0.35293 190:0.35293 191:0 192:0 193:0 194:0 195:0 196:0 197:0 198:0.35293 199:0.35293 200:0 201:0 202:0 203:0 204:0 205:0 206:0 207:0.35293 208:0.35293 209:0 210:0 211:0 212:0 213:0 214:0 215:0 216:0.35293 217:0.325549 218:0.236218 219:0.0397343 220:0.0296537 221:0.231359 222:0.065573 223:0.061415 224:0.0951696 225:0.325549 226:0.325549 227:0.0672284 228:0.0106751 229:0 230:0 231:0 232:0 233:0 234:0.325549 235:0.281809 236:0.177164 237:0.0281316 238:0 239:0.0298958 240:0.0187765 241:0.0279451 242:0.0713772 243:0.325549 244:0.325549 245:0.0504213 246:0.00800631 247:0 248:0 249:0 250:0 251:0 252:0.325549 253:0.35293 254:0 255:0 256:0 257:0 258:0 259:0 260:0 261:0.35293 262:0.35293 263:0 264:0 265:0 266:0 267:0 268:0 269:0 270:0.35293 271:0.35293 272:0 273:0 274:0 275:0 276:0 277:0 278:0 279:0.35293 280:0.35293 281:0 282:0 283:0 284:0 285:0 286:0 287:0 288:0.35293 289:0.35293 290:0 291:0 292:0 293:0 294:0 295:0 296:0 297:0.35293 298:0.35293 299:0 300:0 301:0 302:0 303:0 304:0 305:0 306:0.35293 307:0.35293 308:0 309:0 310:0 311:0 312:0 313:0 314:0 315:0.35293 316:0.35293 317:0 318:0 319:0 320:0 321:0 322:0 323:0 324:0.35293 
0 0 0 0 0 1 0 1:0.195029 2:0.0499759 3:0.167655 4:0.211184 5:0.317134 6:0 7:0.0161657 8:0.00540232 9:0.112581 10:0.290412 11:0.0501659 12:0.155521 13:0.107667 14:0.317134 15:0 16:0.0969944 17:0.0324139 18:0.167913 19:0.0282251 20:0.0787536 21:0.317134 22:0.183625 23:0.317134 24:0.000794364 25:0.019389 26:0.00414383 27:0.0144838 28:0.129532 29:0.0731283 30:0.317134 31:0.16323 32:0.317134 33:0.00476618 34:0.0607612 35:0.0135109 36:0.109115 37:0.146991 38:0.0230935 39:0.122075 40:0.0382546 41:0.349225 42:0 43:0.109885 44:0.0367217 45:0.092045 46:0 47:0 48:0 49:0 50:0 51:0 52:0 53:0 54:0 55:0.349225 56:0.153409 57:0.349225 58:0.133176 59:0.349225 60:0.00539961 61:0.0492615 62:0.0113079 63:0.349225 64:0.349225 65:0.189109 66:0.0527785 67:0 68:0 69:0 70:0 71:0 72:0.349225 73:0 74:0 75:0 76:0 77:0 78:0 79:0 80:0 81:0 82:0 83:0 84:0 85:0 86:0 87:0 88:0 89:0 90:0 91:0.496987 92:0.0839852 93:0 94:0 95:0 96:0 97:0 98:0 99:0.496987 100:0.496987 101:0 102:0 103:0 104:0 105:0 106:0 107:0 108:0.496987 109:0.0398797 110:0.101036 111:0.305869 112:0.0906448 113:0.305869 114:0.0014463 115:0.052679 116:0.0104571 117:0.0398797 118:0.305869 119:0.0575454 120:0.305869 121:0.062419 122:0.305869 123:0.00867778 124:0.136902 125:0.0261428 126:0.305869 127:0.172588 128:0.0748528 129:0.162001 130:0.0751552 131:0.305869 132:0.0154102 133:0.0336739 134:0.0162557 135:0.166755 136:0.305869 137:0.0122457 138:0.0316836 139:0 140:0.0545592 141:0.0014463 142:0.052679 143:0.0104571 144:0.305869 145:0.325008 146:0.139253 147:0.184409 148:0.0268451 149:0.124828 150:0.00397228 151:0.0371672 152:0.00675796 153:0.325008 154:0.325008 155:0.246353 156:0.0687547 157:0 158:0 159:0 160:0 161:0 162:0.325008 163:0.325008 164:0.0511111 165:0.0425947 166:0 167:0.00755061 168:0.000662046 169:0.0139139 170:0.00270318 171:0.325008 172:0.325008 173:0.0985412 174:0.0275019 175:0 176:0 177:0 178:0 179:0 180:0.325008 181:0.349183 182:0.0683874 183:0 184:0 185:0 186:0 187:0 188:0 189:0.349183 190:0.349183 191:0 192:0 193:0 194:0 195:0 196:0 197:0 198:0.349183 199:0.349183 200:0.053788 201:0.0132277 202:0 203:0 204:0 205:0 206:0 207:0.349183 208:0.349183 209:0.0967263 210:0.0630812 211:0 212:0 213:0 214:0 215:0 216:0.349183 217:0.328741 218:0.193962 219:0.0350867 220:0.0131593 221:0.293495 222:0.0418665 223:0.0398179 224:0.0590042 225:0.328741 226:0.328741 227:0.0188953 228:0.00300035 229:0 230:0 231:0 232:0 233:0 234:0.328741 235:0.319322 236:0.143584 237:0.0135016 238:0 239:0.0399456 240:0.0167466 241:0.0192064 242:0.0442532 243:0.29794 244:0.328741 245:0.0141714 246:0.00225026 247:0 248:0 249:0 250:0 251:0 252:0.328741 253:0.35293 254:0 255:0 256:0 257:0 258:0 259:0 260:0 261:0.35293 262:0.35293 263:0 264:0 265:0 266:0 267:0 268:0 269:0 270:0.35293 271:0.35293 272:0 273:0 274:0 275:0 276:0 277:0 278:0 279:0.35293 280:0.35293 281:0 282:0 283:0 284:0 285:0 286:0 287:0 288:0.35293 289:0.335541 290:0.0727539 291:0.0364077 292:0 293:0 294:0 295:0 296:0 297:0.335541 298:0.335541 299:0.266228 300:0.173624 301:0 302:0 303:0 304:0 305:0 306:0.335541 307:0.335541 308:0.0291016 309:0.0145631 310:0 311:0 312:0 313:0 314:0 315:0.335541 316:0.335541 317:0.106491 318:0.0694494 319:0 320:0 321:0 322:0 323:0 324:0.289259 
1 0 1 0 1 1 1 1:0.132079 2:0.116057 3:0.272844 4:0.0592893 5:0.302618 6:0 7:0.00762976 8:0.0112003 9:0.132079 10:0.182618 11:0.0953469 12:0.227927 13:0.196466 14:0.302618 15:0 16:0.0457785 17:0.067202 18:0.182618 19:0.0346251 20:0.0921768 21:0.302618 22:0.112844 23:0.302618 24:0.000771738 25:0.0174909 26:0.00501779 27:0.0346251 28:0.124642 29:0.0349346 30:0.302618 31:0.298036 32:0.302618 33:0.00463043 34:0.050955 35:0.019078 36:0.124642 37:0.11722 38:0.0229868 39:0.167532 40:0.248787 41:0.305423 42:0 43:0.0625576 44:0.0918333 45:0.11722 46:0 47:0 48:0 49:0 50:0 51:0 52:0 53:0 54:0 55:0.305423 56:0.0656341 57:0.305423 58:0.305423 59:0.305423 60:0.0063276 61:0.087925 62:0.0440113 63:0.305423 64:0.305423 65:0.12608 66:0.229758 67:0 68:0 69:0 70:0.170143 71:0.093366 72:0.305423 73:0 74:0 75:0 76:0 77:0 78:0 79:0 80:0 81:0 82:0 83:0 84:0 85:0 86:0 87:0 88:0 89:0 90:0 91:0.440406 92:0.183093 93:0.333655 94:0 95:0 96:0 97:0.172719 98:0.0947797 99:0.440406 100:0.440406 101:0.0817927 102:0.149053 103:0 104:0 105:0 106:0.0587845 107:0.0612029 108:0.440406 109:0.0420805 110:0.0979483 111:0.310445 112:0.0887426 113:0.310445 114:0.00152611 115:0.0555862 116:0.0110342 117:0.0420805 118:0.310445 119:0.0235846 120:0.283703 121:0.126085 122:0.310445 123:0.00915668 124:0.144457 125:0.0275856 126:0.310445 127:0.138313 128:0.0547503 129:0.163152 130:0.0706831 131:0.310445 132:0.0256114 133:0.0238912 134:0.0171528 135:0.122696 136:0.310445 137:0.0636673 138:0.0328439 139:0.00572115 140:0.0575702 141:0.00152611 142:0.0555862 143:0.0334652 144:0.310445 145:0.310363 146:0.0645693 147:0.176481 148:0.0394144 149:0.124949 150:0.00402325 151:0.0840687 152:0.0323202 153:0.310363 154:0.310363 155:0.141955 156:0.258688 157:0 158:0 159:0 160:0.191566 161:0.105122 162:0.310363 163:0.310363 164:0.0601554 165:0.0513709 166:0.00141956 167:0.0076475 168:0.000670541 169:0.0326623 170:0.0303805 171:0.310363 172:0.310363 173:0.0649198 174:0.103475 175:0 176:0 177:0 178:0.0766265 179:0.0420489 180:0.310363 181:0.324297 182:0.141886 183:0.258562 184:0 185:0 186:0 187:0.133847 188:0.0734485 189:0.324297 190:0.324297 191:0.0633844 192:0.115507 193:0 194:0 195:0 196:0.0455544 197:0.0474286 198:0.324297 199:0.324297 200:0.0567545 201:0.103425 202:0 203:0 204:0 205:0.0535386 206:0.0293794 207:0.324297 208:0.324297 209:0.0414125 210:0.0581205 211:0 212:0 213:0 214:0.0182218 215:0.0189714 216:0.324297 217:0.305595 218:0.0892503 219:0.0171336 220:0.0161142 221:0.301183 222:0.0662423 223:0.0093576 224:0.058931 225:0.305595 226:0.305595 227:0.272702 228:0.0207689 229:0 230:0 231:0 232:0 233:0.103765 234:0.305595 235:0.305595 236:0.065053 237:0.00623066 238:0 239:0.0445996 240:0.0264969 241:0.00701819 242:0.0441982 243:0.305595 244:0.305595 245:0.204526 246:0.0155767 247:0 248:0 249:0 250:0 251:0.0778241 252:0.305595 253:0.343913 254:0.162256 255:0.00512517 256:0 257:0 258:0 259:0 260:0.0802944 261:0.343913 262:0.343913 263:0.0374397 264:0 265:0 266:0 267:0 268:0 269:0 270:0.343913 271:0.343913 272:0.121692 273:0.00384388 274:0 275:0 276:0 277:0 278:0.0602208 279:0.339397 280:0.343913 281:0.0280798 282:0 283:0 284:0 285:0 286:0 287:0 288:0.343913 289:0.352445 290:0 291:0 292:0 293:0 294:0 295:0 296:0 297:0.352445 298:0.352445 299:0.0390025 300:0.0289451 301:0 302:0 303:0 304:0 305:0 306:0.352445 307:0.352445 308:0 309:0 310:0 311:0 312:0 313:0 314:0 315:0.352445 316:0.352445 317:0.015601 318:0.0115781 319:0 320:0 321:0 322:0 323:0 324:0.352445 
0 0 1 0 1 1 1 1:0.13052 2:0.108432 3:0.193875 4:0.120005 5:0.330324 6:0.00944406 7:0.0446054 8:0.0630998 9:0.137751 10:0.169002 11:0.138205 12:0.242574 13:0.0314408 14:0.330324 15:0.0566643 16:0.0792752 17:0.102094 18:0.18708 19:0.0291097 20:0.0785126 21:0.320077 22:0.154032 23:0.330324 24:0.00442414 25:0.0263227 26:0.0105166 27:0.0292971 28:0.14289 29:0.0892983 30:0.330324 31:0.0328469 32:0.330324 33:0.024282 34:0.0604337 35:0.0170157 36:0.118452 37:0.0877589 38:0.100543 39:0.235322 40:0 41:0.333357 42:0.0696722 43:0.0643885 44:0.0769623 45:0.100311 46:0 47:0 48:0 49:0 50:0 51:0 52:0 53:0 54:0 55:0.333357 56:0.168364 57:0.333357 58:0.00301883 59:0.333357 60:0.0289912 61:0.0708118 62:0.0453629 63:0.333357 64:0.333357 65:0.152935 66:0.218761 67:0 68:0 69:0 70:0.0682302 71:0.0918738 72:0.333357 73:0 74:0 75:0 76:0 77:0 78:0 79:0 80:0 81:0 82:0 83:0 84:0 85:0 86:0 87:0 88:0 89:0 90:0 91:0.492162 92:0.0910991 93:0.125855 94:0 95:0 96:0 97:0.0244702 98:0.037942 99:0.492162 100:0.492162 101:0.00367271 102:0 103:0 104:0 105:0 106:0 107:0 108:0.492162 109:0.0479057 110:0.101943 111:0.305069 112:0.116741 113:0.305069 114:0.00212791 115:0.0621683 116:0 117:0.0390029 118:0.305069 119:0.064444 120:0.298621 121:0.0104694 122:0.305069 123:0.00531977 124:0.155421 125:0 126:0.305069 127:0.130102 128:0.0556061 129:0.172593 130:0.128951 131:0.305069 132:0.0780038 133:0.0268449 134:0.0124537 135:0.125417 136:0.305069 137:0.0711034 138:0.031823 139:0 140:0.0620948 141:0.00212791 142:0.0621683 143:0.0130149 144:0.305069 145:0.305417 146:0.12461 147:0.214456 148:0.00116511 149:0.164 150:0.00135821 151:0.0727107 152:0.0393756 153:0.305417 154:0.305417 155:0.185086 156:0.26475 157:0 158:0 159:0 160:0.0825738 161:0.111188 162:0.305417 163:0.305417 164:0.0769481 165:0.062218 166:0 167:0.00972676 168:0.000543285 169:0.0290843 170:0.0261699 171:0.305417 172:0.305417 173:0.0788928 174:0.1059 175:0 176:0 177:0 178:0.0330295 179:0.0444751 180:0.305417 181:0.347704 182:0.0743799 183:0.102757 184:0 185:0 186:0 187:0.0199793 188:0.0309786 189:0.347704 190:0.347704 191:0.00299867 192:0 193:0 194:0 195:0 196:0 197:0 198:0.347704 199:0.347704 200:0.029752 201:0.0411028 202:0 203:0 204:0 205:0.00799171 206:0.0123914 207:0.347704 208:0.347704 209:0.0467808 210:0.0830637 211:0 212:0 213:0 214:0 215:0 216:0.347704 217:0.314846 218:0.0766216 219:0.0311744 220:0.0323821 221:0.200673 222:0.127178 223:0.00957104 224:0.0602752 225:0.314846 226:0.314846 227:0.278254 228:0.0212426 229:0 230:0 231:0 232:0 233:0.062991 234:0.314846 235:0.314846 236:0.055266 237:0.00637278 238:0 239:0.0406238 240:0.0323787 241:0.00717828 242:0.0452064 243:0.314846 244:0.314846 245:0.20869 246:0.015932 247:0 248:0 249:0 250:0 251:0.0472433 252:0.314846 253:0.349205 254:0.138879 255:0.00510054 256:0 257:0 258:0 259:0 260:0.0474267 261:0.349205 262:0.349205 263:0.0221142 264:0 265:0 266:0 267:0 268:0 269:0 270:0.349205 271:0.349205 272:0.104159 273:0.0038254 274:0 275:0 276:0 277:0 278:0.0355701 279:0.329311 280:0.349205 281:0.0165856 282:0 283:0 284:0 285:0 286:0 287:0 288:0.349205 289:0.340726 290:0 291:0 292:0 293:0 294:0 295:0 296:0 297:0.340726 298:0.340726 299:0.11634 300:0.212008 301:0 302:0 303:0 304:0 305:0 306:0.340726 307:0.340726 308:0 309:0 310:0 311:0 312:0 313:0 314:0 315:0.340726 316:0.340726 317:0.0465358 318:0.0848031 319:0 320:0 321:0 322:0 323:0 324:0.340726 
0 0 0 0 0 1 0 1:0.172651 2:0.0888903 3:0.209562 4:0.075371 5:0.322427 6:0.0167817 7:0.0173323 8:0.0262765 9:0.141428 10:0.199979 11:0.0780422 12:0.220603 13:0.0342005 14:0.322427 15:0.10069 16:0.103994 17:0.0807396 18:0.204344 19:0.0190961 20:0.102988 21:0.322427 22:0.157425 23:0.322427 24:0.00671267 25:0.0181621 26:0.0104391 27:0.0138923 28:0.127829 29:0.145457 30:0.317786 31:0.097241 32:0.322427 33:0.040276 34:0.0555157 35:0.0286058 36:0.115584 37:0.080134 38:0.0497129 39:0.200401 40:0.00347828 41:0.351555 42:0.117879 43:0.121747 44:0.066525 45:0.106373 46:0 47:0 48:0 49:0 50:0 51:0 52:0 53:0 54:0 55:0.351555 56:0.243604 57:0.277977 58:0.055664 59:0.351555 60:0.0471517 61:0.0455351 62:0.0266866 63:0.351555 64:0.351555 65:0.0887667 66:0 67:0 68:0 69:0 70:0 71:0.0939057 72:0.351555 73:0 74:0 75:0 76:0 77:0 78:0 79:0 80:0 81:0 82:0 83:0 84:0 85:0 86:0 87:0 88:0 89:0 90:0 91:0.492207 92:0.125382 93:0 94:0 95:0 96:0 97:0 98:0.0931551 99:0.492207 100:0.492207 101:0.0401917 102:0 103:0 104:0 105:0 106:0 107:0 108:0.492207 109:0.0319429 110:0.0875382 111:0.297834 112:0.234573 113:0.297834 114:0 115:0.0540136 116:0.0214297 117:0.0319429 118:0.297834 119:0.234814 120:0.159021 121:0.126213 122:0.297834 123:0 124:0.135034 125:0.0535743 126:0.297834 127:0.190021 128:0.0342821 129:0.13347 130:0.0770483 131:0.297834 132:0.0120303 133:0.0400355 134:0.015909 135:0.158112 136:0.297834 137:0.0908612 138:0.00305191 139:0.0175176 140:0.0428546 141:0 142:0.0540136 143:0.0214297 144:0.297834 145:0.330103 146:0.227652 147:0.0434474 148:0.0297865 149:0.147377 150:0 151:0.0321236 152:0.0198502 153:0.330103 154:0.330103 155:0.112958 156:0 157:0 158:0 159:0 160:0 161:0.119497 162:0.330103 163:0.330103 164:0.108354 165:0.00227661 166:0.0041673 167:0.00600021 168:0 169:0.0128494 170:0.00794009 171:0.330103 172:0.330103 173:0.0765684 174:0 175:0 176:0 177:0 178:0 179:0.0477989 180:0.330103 181:0.348566 182:0.0988813 183:0 184:0 185:0 186:0 187:0 188:0.073466 189:0.348566 190:0.348566 191:0.0316968 192:0 193:0 194:0 195:0 196:0 197:0 198:0.348566 199:0.348566 200:0.0463346 201:0 202:0 203:0 204:0 205:0 206:0.0293864 207:0.348566 208:0.348566 209:0.0727932 210:0.0064565 211:0 212:0 213:0 214:0 215:0 216:0.348566 217:0.333102 218:0.059041 219:0.00356086 220:0.00545646 221:0.299284 222:0.0291503 223:0.0446576 224:0.0314821 225:0.333102 226:0.333102 227:0.0702698 228:0 229:0 230:0 231:0 232:0 233:0 234:0.333102 235:0.333102 236:0.0442807 237:0 238:0 239:0.0373222 240:0.0116601 241:0.017863 242:0.0236115 243:0.333102 244:0.333102 245:0.0527023 246:0 247:0 248:0 249:0 250:0 251:0 252:0.333102 253:0.350904 254:0.0590736 255:0 256:0 257:0 258:0 259:0 260:0 261:0.350904 262:0.350904 263:0.0789662 264:0 265:0 266:0 267:0 268:0 269:0 270:0.350904 271:0.350904 272:0.0265297 273:0 274:0 275:0 276:0 277:0 278:0 279:0.350904 280:0.350904 281:0.0315865 282:0 283:0 284:0 285:0 286:0 287:0 288:0.350904 289:0.352403 290:0.0183912 291:0 292:0 293:0 294:0 295:0 296:0 297:0.352403 298:0.352403 299:0.163015 300:0.0175084 301:0 302:0 303:0 304:0 305:0 306:0.352403 307:0.352403 308:0.00735649 309:0 310:0 311:0 312:0 313:0 314:0 315:0.309176 316:0.352403 317:0.0652061 318:0.00700336 319:0 320:0 321:0 322:0 323:0 324:0.352403 
0 0 1 0 0 0 0 1:0.0856339 2:0.124184 3:0.26977 4:0.137259 5:0.231808 6:0.0100245 7:0.00811272 8:0.0119093 9:0.0856339 10:0.137546 11:0.153191 12:0.22703 13:0.156195 14:0.310861 15:0.0601468 16:0.0486763 17:0.0714559 18:0.137546 19:0.0272758 20:0.0847414 21:0.310861 22:0.216508 23:0.310861 24:0.00796741 25:0.00135212 26:0.00198489 27:0.0278898 28:0.123786 29:0.0659733 30:0.310861 31:0.310861 32:0.310861 33:0.0423382 34:0.00811272 35:0.0119093 36:0.125212 37:0.0685507 38:0.0568325 39:0.0722221 40:0.113715 41:0.344428 42:0.0611573 43:0.0494941 44:0.0726564 45:0.0685507 46:0 47:0 48:0 49:0 50:0 51:0 52:0 53:0 54:0 55:0.344428 56:0.0925121 57:0.344428 58:0.324876 59:0.344428 60:0.0413214 61:0.00824902 62:0.0121094 63:0.344428 64:0.344428 65:0.0426908 66:0.0777963 67:0 68:0 69:0 70:0 71:0 72:0.344428 73:0 74:0 75:0 76:0 77:0 78:0 79:0 80:0 81:0 82:0 83:0 84:0 85:0 86:0 87:0 88:0 89:0 90:0 91:0.498753 92:0 93:0 94:0 95:0 96:0 97:0 98:0 99:0.498753 100:0.498753 101:0 102:0 103:0 104:0 105:0 106:0 107:0 108:0.498753 109:0.0370289 110:0.0368324 111:0.294385 112:0.233246 113:0.294385 114:0.00865444 115:0 116:0 117:0.0388519 118:0.294385 119:0.0577384 120:0.294385 121:0.165059 122:0.294385 123:0.0356963 124:0 125:0 126:0.294385 127:0.104835 128:0.0524138 129:0.264022 130:0.111578 131:0.294385 132:0.00978289 133:0.0344258 134:0.0407019 135:0.108633 136:0.294385 137:0.0528389 138:0.0505383 139:0 140:0.102337 141:0.00865444 142:0 143:0 144:0.294385 145:0.325602 146:0.111157 147:0.27078 148:0.0747798 149:0.171476 150:0.0146363 151:0 152:0 153:0.325602 154:0.325602 155:0.0595299 156:0.108483 157:0 158:0 159:0 160:0 161:0 162:0.325602 163:0.325602 164:0.0462939 165:0.0830341 166:0 167:0.0229962 168:0.00316886 169:0 170:0 171:0.325602 172:0.325602 173:0.0308895 174:0.0433931 175:0 176:0 177:0 178:0 179:0 180:0.325602 181:0.35119 182:0 183:0 184:0 185:0 186:0 187:0 188:0 189:0.35119 190:0.35119 191:0 192:0 193:0 194:0 195:0 196:0 197:0 198:0.35119 199:0.35119 200:0.0168206 201:0 202:0 203:0 204:0 205:0 206:0.0118822 207:0.35119 208:0.35119 209:0.0510829 210:0.0808284 211:0 212:0 213:0 214:0 215:0.015843 216:0.35119 217:0.302743 218:0.194752 219:0.0955705 220:0.0109194 221:0.270651 222:0.0120225 223:0.11833 224:0.179231 225:0.302743 226:0.302743 227:0.189771 228:0.0301334 229:0 230:0 231:0 232:0 233:0 234:0.302743 235:0.302743 236:0.141501 237:0.0224687 238:0 239:0.0266821 240:0.00200376 241:0.0612891 242:0.119817 243:0.302743 244:0.302743 245:0.142328 246:0.0226001 247:0 248:0 249:0 250:0 251:0 252:0.302743 253:0.352801 254:0.014669 255:0.00232927 256:0 257:0 258:0 259:0 260:0 261:0.352801 262:0.352801 263:0.0181234 264:0 265:0 266:0 267:0 268:0 269:0 270:0.352801 271:0.352801 272:0.0110018 273:0.00174695 274:0 275:0 276:0 277:0 278:0 279:0.352801 280:0.352801 281:0.00724935 282:0 283:0 284:0 285:0 286:0 287:0 288:0.352801 289:0.337875 290:0.0455043 291:0 292:0 293:0 294:0 295:0 296:0.0321446 297:0.337875 298:0.337875 299:0.138193 300:0.218662 301:0 302:0 303:0 304:0 305:0.0428594 306:0.337875 307:0.337875 308:0.0182017 309:0 310:0 311:0 312:0 313:0 314:0.0128578 315:0.337875 316:0.337875 317:0.0552772 318:0.0874649 319:0 320:0 321:0 322:0 323:0.0171438 324:0.337875 
0 0 0 0 0 1 0 1:0.140942 2:0.0482643 3:0.200355 4:0.12213 5:0.253933 6:0 7:0.0169295 8:0.00565754 9:0.140942 10:0.239585 11:0.0421287 12:0.156143 13:0.0545558 14:0.313549 15:0 16:0.101577 17:0.0339452 18:0.239585 19:0.0360143 20:0.0309105 21:0.313549 22:0.291918 23:0.313549 24:0.00127301 25:0.0157747 26:0.00226302 27:0.0360143 28:0.134976 29:0.0714713 30:0.313549 31:0.232996 32:0.313549 33:0.00440311 34:0.081967 35:0.0135781 36:0.120094 37:0.151279 38:0.00848558 39:0.0799419 40:0.0126011 41:0.362769 42:0 43:0.12696 44:0.0424279 45:0.151279 46:0 47:0 48:0 49:0 50:0 51:0 52:0 53:0 54:0 55:0.362769 56:0.087648 57:0.288727 58:0.183794 59:0.362769 60:0.00424629 61:0.0975218 62:0.0169711 63:0.362769 64:0.362769 65:0.0204893 66:0.0373381 67:0 68:0 69:0 70:0 71:0 72:0.362769 73:0 74:0 75:0 76:0 77:0 78:0 79:0 80:0 81:0 82:0 83:0 84:0 85:0 86:0 87:0 88:0 89:0 90:0 91:0.461941 92:0.16027 93:0.187096 94:0 95:0 96:0 97:0 98:0 99:0.461941 100:0.461941 101:0.239896 102:0.132948 103:0 104:0.0315065 105:0 106:0.0433038 107:0.055174 108:0.461941 109:0.0130042 110:0.0365657 111:0.300963 112:0.290255 113:0.300963 114:0.00616076 115:0.0366017 116:0 117:0.0130042 118:0.300963 119:0.113961 120:0.133315 121:0.241787 122:0.300963 123:0.0191894 124:0.149931 125:0 126:0.261117 127:0.0646855 128:0.0340744 129:0.298721 130:0.0662695 131:0.300963 132:0.0160047 133:0.0756161 134:0.00190805 135:0.0495241 136:0.300963 137:0.0862692 138:0.00190738 139:0.0252579 140:0.0969442 141:0.0121196 142:0.0773922 143:0 144:0.234409 145:0.339039 146:0.0849612 147:0.0472858 148:0.0723856 149:0.205672 150:0.0063 151:0.0591442 152:0 153:0.339039 154:0.339039 155:0.023455 156:0.0427426 157:0 158:0 159:0 160:0 161:0 162:0.339039 163:0.339039 164:0.0853886 165:0.00263052 166:0.00502418 167:0.0241651 168:0.00367714 169:0.0281937 170:0 171:0.339039 172:0.339039 173:0.0685804 174:0.0264971 175:0 176:0 177:0 178:0 179:0 180:0.339039 181:0.33297 182:0.104273 183:0.121726 184:0 185:0 186:0 187:0 188:0 189:0.33297 190:0.33297 191:0.156077 192:0.0864968 193:0 194:0.0891107 195:0 196:0.0281737 197:0.0358965 198:0.33297 199:0.33297 200:0.0621182 201:0.0519311 202:0 203:0 204:0 205:0 206:0 207:0.33297 208:0.33297 209:0.0798686 210:0.0436373 211:0.00743937 212:0.164127 213:0 214:0.0112695 215:0.0143586 216:0.33297 217:0.31081 218:0.0967561 219:0.141402 220:0.0074172 221:0.31081 222:0.047471 223:0.19769 224:0.0447649 225:0.31081 226:0.31081 227:0.105865 228:0 229:0 230:0 231:0 232:0 233:0 234:0.31081 235:0.31081 236:0.114856 237:0.0114636 238:0 239:0.0424167 240:0.0325771 241:0.125171 242:0.0545641 243:0.31081 244:0.31081 245:0.0931766 246:0 247:0 248:0 249:0 250:0 251:0 252:0.31081 253:0.325814 254:0.135718 255:0.0120856 256:0 257:0 258:0 259:0 260:0 261:0.325814 262:0.325814 263:0.27198 264:0.0431872 265:0 266:0 267:0 268:0 269:0 270:0.325814 271:0.325814 272:0.101788 273:0.00906419 274:0 275:0 276:0 277:0 278:0 279:0.325814 280:0.325814 281:0.203985 282:0.0323904 283:0 284:0 285:0 286:0 287:0 288:0.325814 289:0.349364 290:0.0924108 291:0.0146738 292:0 293:0 294:0 295:0 296:0 297:0.349364 298:0.349364 299:0.0445878 300:0.0231116 301:0.0107423 302:0.0577144 303:0 304:0 305:0 306:0.349364 307:0.349364 308:0.0693081 309:0.0110053 310:0 311:0 312:0 313:0 314:0 315:0.349364 316:0.349364 317:0.0178351 318:0.00924462 319:0.00179038 320:0.00382347 321:0 322:0 323:0 324:0.349364 
0 1 0 1 0 1 0 1:0.135022 2:0.0256467 3:0.196147 4:0.146848 5:0.246103 6:0 7:0.016975 8:0.00567275 9:0.135022 10:0.237709 11:0.019235 12:0.13954 13:0.158972 14:0.317447 15:0 16:0.10185 17:0.0340365 18:0.237709 19:0.0350613 20:0.030362 21:0.312026 22:0.231043 23:0.317447 24:0 25:0.0139937 26:0.00467646 27:0.0350613 28:0.138763 29:0.0110446 30:0.259994 31:0.317447 32:0.317447 33:0 34:0.0839622 35:0.0280588 36:0.129947 37:0.153996 38:0 39:0.0465251 40:0.136887 41:0.348385 42:0 43:0.12924 44:0.0431897 45:0.153996 46:0 47:0 48:0 49:0 50:0 51:0 52:0 53:0 54:0 55:0.348385 56:0 57:0.208054 58:0.348385 59:0.348385 60:0 61:0.106542 62:0.0356044 63:0.348385 64:0.348385 65:0.0335997 66:0.0545716 67:0 68:0 69:0 70:0 71:0 72:0.348385 73:0 74:0 75:0 76:0 77:0 78:0 79:0 80:0 81:0 82:0 83:0 84:0 85:0 86:0 87:0 88:0 89:0 90:0 91:0.464605 92:0.166733 93:0.25857 94:0 95:0 96:0 97:0 98:0 99:0.464605 100:0.464605 101:0.0970187 102:0.142846 103:0 104:0.0358778 105:0 106:0.0744774 107:0.0248891 108:0.464605 109:0.00976442 110:0.0664256 111:0.319181 112:0.183878 113:0.319181 114:0 115:0.0228932 116:0.00765054 117:0.00976442 118:0.319181 119:0.00720745 120:0.142209 121:0.180781 122:0.319181 123:0 124:0.137359 125:0.0459032 126:0.303609 127:0.0593417 128:0.049769 129:0.210175 130:0.197443 131:0.319181 132:0.0294985 133:0.0304356 134:0.0101711 135:0.0509521 136:0.316979 137:0.0297589 138:0.0116569 139:0 140:0.114456 141:0 142:0.0549437 143:0.0183613 144:0.265927 145:0.341031 146:0 147:0.0410755 148:0.0733355 149:0.206119 150:0 151:0.0609971 152:0.0203842 153:0.341031 154:0.341031 155:0.0373682 156:0.0606922 157:0 158:0 159:0 160:0 161:0 162:0.341031 163:0.341031 164:0.0356719 165:0.00180364 166:0 167:0.0266193 168:0 169:0.0243988 170:0.00815368 171:0.341031 172:0.341031 173:0.0627218 174:0.028786 175:0 176:0 177:0 178:0 179:0 180:0.341031 181:0.320648 182:0.115665 183:0.179373 184:0 185:0 186:0 187:0 188:0 189:0.320648 190:0.320648 191:0.067303 192:0.0990937 193:0 194:0.11029 195:0 196:0.0516658 197:0.0172659 198:0.320648 199:0.320648 200:0.0558485 201:0.0728475 202:0 203:0 204:0 205:0 206:0 207:0.320648 208:0.320648 209:0.0994281 210:0.137325 211:0 212:0.248187 213:0 214:0.0206663 215:0.00690635 216:0.320648 217:0.322187 218:0.0400119 219:0.0145408 220:0.0498274 221:0.322187 222:0.0547451 223:0.096585 224:0.032277 225:0.322187 226:0.322187 227:0.126721 228:0 229:0 230:0.000919315 231:0 232:0 233:0 234:0.322187 235:0.322187 236:0.0265963 237:0 238:0 239:0.114039 240:0.0155806 241:0.0724387 242:0.0242077 243:0.322187 244:0.322187 245:0.0950405 246:0 247:0 248:0 249:0 250:0 251:0 252:0.322187 253:0.330649 254:0.166674 255:0.00842738 256:0 257:0 258:0 259:0 260:0 261:0.330649 262:0.330649 263:0.223223 264:0.0210685 265:0 266:0 267:0 268:0 269:0 270:0.330649 271:0.330649 272:0.125006 273:0.00632054 274:0 275:0 276:0 277:0 278:0 279:0.330649 280:0.330649 281:0.167418 282:0.0158013 283:0 284:0 285:0 286:0 287:0 288:0.330649 289:0.334338 290:0.0454951 291:0.00521461 292:0 293:0 294:0 295:0 296:0 297:0.334338 298:0.334338 299:0.17958 300:0.217574 301:0 302:0.0979069 303:0 304:0 305:0 306:0.334338 307:0.334338 308:0.0341213 309:0.00391096 310:0 311:0 312:0 313:0 314:0 315:0.334338 316:0.334338 317:0.067347 318:0.0736084 319:0 320:0 321:0 322:0 323:0 324:0.334338 
0 1 1 0 0 1 0 1:0.0926316 2:0.151509 3:0.2764 4:0.0124343 5:0.31993 6:0.00984885 7:0.00797059 8:0.0117007 9:0.0926316 10:0.138535 11:0.180104 12:0.248617 13:0.00889388 14:0.31993 15:0.0590931 16:0.0478235 17:0.0702041 18:0.138535 19:0.0228223 20:0.0875683 21:0.31993 22:0.158057 23:0.31993 24:0.0173804 25:0.00189995 26:0.00924829 27:0.0228223 28:0.0995404 29:0.0970353 30:0.31993 31:0.22937 32:0.31993 33:0.0631888 34:0.0113997 35:0.0554897 36:0.0952363 37:0.0690238 38:0.0642319 39:0.111885 40:0.005002 41:0.35883 42:0.0615794 43:0.0498357 44:0.0731578 45:0.0690238 46:0 47:0 48:0 49:0 50:0 51:0 52:0 53:0 54:0 55:0.35883 56:0.1275 57:0.35883 58:0.163682 59:0.35883 60:0.0525333 61:0.0118793 62:0.0578244 63:0.35883 64:0.35883 65:0.0429854 66:0.0783332 67:0 68:0 69:0 70:0 71:0 72:0.35883 73:0 74:0 75:0 76:0 77:0 78:0 79:0 80:0 81:0 82:0 83:0 84:0 85:0 86:0 87:0 88:0 89:0 90:0 91:0.453149 92:0 93:0 94:0 95:0 96:0 97:0 98:0 99:0.453149 100:0.453149 101:0.333864 102:0.22743 103:0 104:0.0356032 105:0.0360282 106:0.051424 107:0.0754895 108:0.453149 109:0.0164273 110:0.0740659 111:0.28046 112:0.28046 113:0.28046 114:0.0412369 115:0.00185557 116:0.0236954 117:0.0164273 118:0.28046 119:0.0627852 120:0.19949 121:0.278651 122:0.28046 123:0.114 124:0.0111334 125:0.142172 126:0.28046 127:0.092672 128:0.0577261 129:0.223985 130:0.151054 131:0.28046 132:0.0886895 133:0.0869999 134:0.0499262 135:0.092672 136:0.28046 137:0.06998 138:0.0335991 139:0.0205121 140:0.0586782 141:0.0412369 142:0.00445337 143:0.0568689 144:0.28046 145:0.326554 146:0.119093 147:0.248498 148:0.0831254 149:0.15355 150:0.0332002 151:0.00509711 152:0.0650894 153:0.326554 154:0.326554 155:0.061315 156:0.111736 157:0 158:0 159:0 160:0 161:0 162:0.326554 163:0.326554 164:0.0637092 165:0.0821758 166:0.00480217 167:0.0116547 168:0.0112825 169:0.00203884 170:0.0260358 171:0.326554 172:0.326554 173:0.0297558 174:0.0542246 175:0 176:0 177:0 178:0 179:0 180:0.326554 181:0.337515 182:0 183:0 184:0 185:0 186:0 187:0 188:0 189:0.337515 190:0.337515 191:0.157788 192:0.107486 193:0 194:0.0899813 195:0.0301519 196:0.0243035 197:0.0356771 198:0.337515 199:0.337515 200:0.0375788 201:0.0684805 202:0 203:0 204:0 205:0 206:0 207:0.337515 208:0.337515 209:0.0895924 210:0.106806 211:0 212:0.110645 213:0.0120608 214:0.00405059 215:0.00594619 216:0.337515 217:0.299549 218:0.0802965 219:0.0510291 220:0.0312885 221:0.299549 222:0.158639 223:0.0957268 224:0.115456 225:0.299549 226:0.299549 227:0.267973 228:0.042551 229:0 230:0 231:0 232:0 233:0 234:0.299549 235:0.299549 236:0.0562425 237:0.00893066 238:0 239:0.0709247 240:0.052314 241:0.0152544 242:0.0739877 243:0.299549 244:0.299549 245:0.20098 246:0.0319132 247:0 248:0 249:0 250:0 251:0 252:0.299549 253:0.350386 254:0.0916515 255:0.0145532 256:0 257:0 258:0 259:0 260:0 261:0.350386 262:0.350386 263:0.0132737 264:0.0241889 265:0 266:0 267:0 268:0 269:0 270:0.350386 271:0.350386 272:0.0687386 273:0.0109149 274:0 275:0 276:0 277:0 278:0 279:0.350386 280:0.350386 281:0.00530947 282:0.00967554 283:0 284:0 285:0 286:0 287:0 288:0.350386 289:0.343185 290:0.109814 291:0.200116 292:0 293:0 294:0 295:0 296:0 297:0.343185 298:0.343185 299:0.15253 300:0.234308 301:0 302:0.019155 303:0 304:0 305:0 306:0.343185 307:0.343185 308:0.0439255 309:0.0800463 310:0 311:0 312:0 313:0 314:0 315:0.343185 316:0.265445 317:0.0511947 318:0.086018 319:0 320:0 321:0 322:0 323:0 324:0.265445 
0 0 1 0 0 0 0 1:0.104135 2:0.0740946 3:0.281788 4:0.0976526 5:0.260415 6:0 7:0.0316396 8:0.0128907 9:0.104135 10:0.151338 11:0.0763471 12:0.234545 13:0.0471986 14:0.314815 15:0 16:0.189837 17:0.0773442 18:0.151338 19:0.0241713 20:0.0354441 21:0.314815 22:0.269957 23:0.314815 24:0.00295707 25:0.0136663 26:0.00799793 27:0.0241713 28:0.096054 29:0.130364 30:0.314815 31:0.217401 32:0.314815 33:0.00739267 34:0.0819976 35:0.0479876 36:0.0847909 37:0.061712 38:0.0182657 39:0.0895273 40:0.0105466 41:0.349312 42:0 43:0.196625 44:0.0801098 45:0.061712 46:0 47:0 48:0 49:0 50:0 51:0 52:0 53:0 54:0 55:0.349312 56:0.312157 57:0.245422 58:0.145012 59:0.349312 60:0.00432405 61:0.0849296 62:0.0497034 63:0.345042 64:0.349312 65:0.133423 66:0 67:0 68:0 69:0 70:0 71:0 72:0.349312 73:0 74:0 75:0 76:0 77:0 78:0 79:0 80:0 81:0 82:0 83:0 84:0 85:0 86:0 87:0 88:0 89:0 90:0 91:0.497716 92:0.0299113 93:0 94:0 95:0 96:0 97:0 98:0 99:0.497716 100:0.497716 101:0.0135122 102:0 103:0 104:0.0230182 105:0 106:0.0477826 107:0.0159682 108:0.497716 109:0.0130018 110:0.0325704 111:0.310331 112:0.311411 113:0.311411 114:0.00905236 115:0.0134798 116:0.0138253 117:0.0130018 118:0.244427 119:0.234855 120:0.12743 121:0.20042 122:0.311411 123:0.0226309 124:0.0808785 125:0.0829515 126:0.209948 127:0.109941 128:0.0449595 129:0.176183 130:0.103255 131:0.311411 132:0.0134892 133:0.0215931 134:0.0156618 135:0.109941 136:0.311411 137:0.0915195 138:0.0106342 139:0.0155355 140:0.0883035 141:0.00905236 142:0.0323514 143:0.0331806 144:0.311411 145:0.309198 146:0.309198 147:0.0466107 148:0.0607857 149:0.200972 150:0.00582976 151:0.0368935 152:0.0378391 153:0.309198 154:0.309198 155:0.178858 156:0 157:0 158:0 159:0 160:0 161:0 162:0.309198 163:0.309198 164:0.153587 165:0.00230208 166:0.00235787 167:0.0224144 168:0.0023319 169:0.0147574 170:0.0151357 171:0.309198 172:0.309198 173:0.171081 174:0.039763 175:0 176:0 177:0 178:0 179:0 180:0.309198 181:0.346534 182:0.0189964 183:0 184:0 185:0 186:0 187:0 188:0 189:0.346534 190:0.346534 191:0.00622043 192:0 193:0 194:0.0609238 195:0 196:0.0389523 197:0.0130172 198:0.346534 199:0.346534 200:0.0706911 201:0.0242561 202:0 203:0 204:0 205:0 206:0 207:0.346534 208:0.346534 209:0.127271 210:0 211:0 212:0.0894545 213:0 214:0.0155809 215:0.00520688 216:0.346534 217:0.324532 218:0.113814 219:0.193718 220:0.00449845 221:0.324532 222:0.0271436 223:0.0789119 224:0.049349 225:0.324532 226:0.324532 227:0.0323918 228:0.0517964 229:0 230:0 231:0 232:0 233:0 234:0.324532 235:0.272042 236:0.0853607 237:0.136497 238:0 239:0.121893 240:0.0108574 241:0.0591839 242:0.0370118 243:0.272042 244:0.324532 245:0.0242939 246:0.0388473 247:0 248:0 249:0 250:0 251:0 252:0.324532 253:0.335137 254:0.0248755 255:0.00620523 256:0 257:0 258:0 259:0 260:0 261:0.335137 262:0.335137 263:0.26914 264:0.107181 265:0 266:0 267:0 268:0 269:0 270:0.335137 271:0.335137 272:0.00995019 273:0.00248209 274:0 275:0 276:0 277:0 278:0 279:0.335137 280:0.335137 281:0.107656 282:0.0428723 283:0 284:0 285:0 286:0 287:0 288:0.335137 289:0.372407 290:0.213733 291:0.0800999 292:0 293:0 294:0 295:0 296:0 297:0.372407 298:0.372407 299:0.251951 300:0 301:0 302:0.0266159 303:0 304:0 305:0 306:0.372407 307:0.338224 308:0.0854931 309:0.0320399 310:0 311:0 312:0 313:0 314:0 315:0.22162 316:0.322226 317:0.0508602 318:0 319:0 320:0 321:0 322:0 323:0 324:0.216759 
1 1 1 1 0.072462029924539595 1 1 1:0.13782 2:0.0426173 3:0.172704 4:0.115315 5:0.295952 6:0 7:0.0173267 8:0.0057903 9:0.13782 10:0.242635 11:0.0262092 12:0.110173 13:0.16278 14:0.32515 15:0 16:0.10396 17:0.0347418 18:0.242635 19:0.0360547 20:0.0585075 21:0.30665 22:0.219791 23:0.32515 24:0 25:0.0131145 26:0.00562119 27:0.0360547 28:0.14305 29:0.0306623 30:0.203524 31:0.32515 32:0.32515 33:0 34:0.0786868 35:0.0337271 36:0.12332 37:0.13591 38:0 39:0.0160739 40:0.137131 41:0.343504 42:0 43:0.114061 44:0.0381173 45:0.13591 46:0 47:0 48:0 49:0 50:0 51:0 52:0 53:0 54:0 55:0.343504 56:0.136771 57:0.190649 58:0.343504 59:0.343504 60:0 61:0.0863321 62:0.0532228 63:0.343504 64:0.343504 65:0.166018 66:0.0747681 67:0 68:0 69:0 70:0 71:0.0405468 72:0.343504 73:0 74:0 75:0 76:0 77:0 78:0 79:0 80:0 81:0 82:0 83:0 84:0 85:0 86:0 87:0 88:0 89:0 90:0 91:0.496112 92:0.067465 93:0.00463116 94:0 95:0 96:0 97:0 98:0.0157122 99:0.496112 100:0.496112 101:0 102:0 103:0 104:0.03142 105:0 106:0.0652237 107:0.0217967 108:0.496112 109:0.0107852 110:0.0769702 111:0.312434 112:0.192158 113:0.312434 114:0 115:0.0184807 116:0.00987745 117:0.0107852 118:0.312434 119:0.0389524 120:0.143064 121:0.296733 122:0.312434 123:0 124:0.110884 125:0.0592647 126:0.260097 127:0.0669154 128:0.0646235 129:0.225665 130:0.116411 131:0.312434 132:0 133:0.0278171 134:0.0107766 135:0.0457014 136:0.312434 137:0.0857328 138:0.0274991 139:0.0209813 140:0.0959477 141:0 142:0.0443537 143:0.0237059 144:0.278899 145:0.313869 146:0.181292 147:0.150402 148:0.134649 149:0.191044 150:0 151:0.0539586 152:0.0503375 153:0.313869 154:0.313869 155:0.220059 156:0.0991061 157:0 158:0 159:0 160:0 161:0.0537454 162:0.313869 163:0.313869 164:0.110253 165:0.052048 166:0.00943656 167:0.0193972 168:0 169:0.0215834 170:0.020135 171:0.313869 172:0.313869 173:0.103665 174:0.0681468 175:0 176:0 177:0 178:0 179:0.0214981 180:0.313869 181:0.336161 182:0.0519539 183:0.0035664 184:0 185:0 186:0 187:0 188:0.0120998 189:0.336161 190:0.336161 191:0 192:0 193:0 194:0.0950826 195:0 196:0.0502279 197:0.0167853 198:0.336161 199:0.336161 200:0.0690129 201:0.0893194 202:0 203:0 204:0 205:0.0295067 206:0.0210317 207:0.336161 208:0.336161 209:0.0678084 210:0.127604 211:0 212:0.196565 213:0 214:0.0594335 215:0.0283032 216:0.336161 217:0.296689 218:0.109878 219:0.0337916 220:0.014084 221:0.296689 222:0 223:0.0945438 224:0.0315949 225:0.296689 226:0.296689 227:0.296689 228:0.0396649 229:0 230:0.00143419 231:0 232:0 233:0 234:0.296689 235:0.296689 236:0.079068 237:0.00254094 238:0 239:0.128227 240:0 241:0.0709078 242:0.0236962 243:0.296689 244:0.296689 245:0.250378 246:0.0297487 247:0 248:0 249:0 250:0 251:0 252:0.296689 253:0.343197 254:0.170256 255:0.0258832 256:0 257:0 258:0 259:0 260:0 261:0.343197 262:0.343197 263:0.0398534 264:0.0726256 265:0 266:0 267:0 268:0 269:0 270:0.343197 271:0.343197 272:0.127692 273:0.0194124 274:0 275:0 276:0 277:0 278:0 279:0.343197 280:0.343197 281:0.0159414 282:0.0290502 283:0 284:0 285:0 286:0 287:0 288:0.343197 289:0.313117 290:0.146761 291:0.267446 292:0 293:0 294:0 295:0.0897849 296:0.0492695 297:0.313117 298:0.313117 299:0.185683 300:0.313117 301:0 302:0.083674 303:0 304:0.119713 305:0.0656926 306:0.313117 307:0.312612 308:0.0587044 309:0.106978 310:0 311:0 312:0 313:0.0359139 314:0.0197078 315:0.303315 316:0.238138 317:0.0680222 318:0.125114 319:0 320:0 321:0 322:0.0478853 323:0.026277 324:0.238138 
1 1 1 1 1 1 1 1:0.136514 2:0.0527493 3:0.222168 4:0.123172 5:0.242361 6:0 7:0.0169694 8:0.0056709 9:0.136514 10:0.238246 11:0.0462429 12:0.169622 13:0.120509 14:0.317448 15:0 16:0.101816 17:0.0340254 18:0.238246 19:0.0410076 20:0.0681485 21:0.317448 22:0.220869 23:0.317448 24:0 25:0.00678777 26:0.00226836 27:0.0432982 28:0.166154 29:0.0645635 30:0.317448 31:0.201256 32:0.317448 33:0 34:0.0407266 35:0.0136101 36:0.166375 37:0.144046 38:0.0182646 39:0.0740372 40:0.0936472 41:0.338167 42:0 43:0.120889 44:0.0403992 45:0.144046 46:0 47:0 48:0 49:0 50:0 51:0 52:0 53:0 54:0 55:0.338167 56:0.102792 57:0.338167 58:0.176342 59:0.338167 60:0 61:0.0594553 62:0.0295425 63:0.338167 64:0.338167 65:0.144464 66:0.214406 67:0 68:0 69:0 70:0.0665975 71:0.0802972 72:0.338167 73:0 74:0 75:0 76:0 77:0 78:0 79:0 80:0 81:0 82:0 83:0 84:0 85:0 86:0 87:0 88:0 89:0 90:0 91:0.486398 92:0.133164 93:0.139344 94:0 95:0 96:0 97:0.0449178 98:0.0541578 99:0.486398 100:0.486398 101:0.0173432 102:0.0143843 103:0 104:0.0327317 105:0 106:0.0679465 107:0.0227066 108:0.486398 109:0.0334165 110:0.0612622 111:0.324254 112:0.161834 113:0.324254 114:0 115:0 116:0 117:0.0401146 118:0.324254 119:0.0258895 120:0.237419 121:0.0682318 122:0.324254 123:0 124:0 125:0 126:0.324254 127:0.0753512 128:0.0444952 129:0.171019 130:0.104938 131:0.324254 132:0.0149989 133:0.0195718 134:0.00654055 135:0.0630832 136:0.324254 137:0.0280723 138:0.0241881 139:0.00225425 140:0.116715 141:0 142:0 143:0 144:0.314427 145:0.304735 146:0.0739834 147:0.196558 148:0.0224654 149:0.230465 150:0 151:0.0136661 152:0.0164773 153:0.304735 154:0.304735 155:0.177868 156:0.263982 157:0 158:0 159:0 160:0.0819964 161:0.0988638 162:0.304735 163:0.304735 164:0.0735718 165:0.0608848 166:0 167:0.0276372 168:0 169:0.00546643 170:0.00659092 171:0.304735 172:0.304735 173:0.113295 174:0.112285 175:0 176:0 177:0 178:0.0327986 179:0.0395455 180:0.304735 181:0.327972 182:0.101166 183:0.105861 184:0 185:0 186:0 187:0.0341246 188:0.0411443 189:0.327972 190:0.327972 191:0.0131758 192:0.0109279 193:0 194:0.110191 195:0 196:0.0516197 197:0.0172504 198:0.327972 199:0.327972 200:0.05908 201:0.0708541 202:0 203:0 204:0 205:0.0136498 206:0.0164577 207:0.327972 208:0.327972 209:0.0728473 210:0.142359 211:0 212:0.247966 213:0 214:0.0206479 215:0.00690017 216:0.327972 217:0.321892 218:0.0640141 219:0.0137593 220:0.0323795 221:0.321892 222:0.0532451 223:0.0976022 224:0.032617 225:0.321892 226:0.321892 227:0.132072 228:0.00378946 229:0 230:0.00032902 231:0 232:0 233:0 234:0.321892 235:0.321892 236:0.044562 237:0 238:0 239:0.0967565 240:0.0301472 241:0.0732017 242:0.0244627 243:0.321892 244:0.321892 245:0.0990537 246:0.0028421 247:0 248:0 249:0 250:0 251:0 252:0.321892 253:0.328752 254:0.213863 255:0.0303452 256:0 257:0 258:0 259:0 260:0 261:0.328752 262:0.328752 263:0.192222 264:0.0305226 265:0 266:0 267:0 268:0 269:0 270:0.328752 271:0.328752 272:0.160397 273:0.0227589 274:0 275:0 276:0 277:0 278:0 279:0.328752 280:0.328752 281:0.144167 282:0.022892 283:0 284:0 285:0 286:0 287:0 288:0.328752 289:0.328098 290:0.0578487 291:0.079178 292:0 293:0 294:0 295:0 296:0 297:0.328098 298:0.328098 299:0.169971 300:0.328098 301:0 302:0.0999328 303:0 304:0 305:0 306:0.328098 307:0.328098 308:0.0286605 309:0.0325479 310:0 311:0 312:0 313:0 314:0 315:0.328098 316:0.301429 317:0.0634104 318:0.11938 319:0 320:0 321:0 322:0 323:0 324:0.289271 
1 1 1 1 1 1 1 1:0.129534 2:0.0626158 3:0.231931 4:0.0184867 5:0.315304 6:0 7:0.0170145 8:0.00437448 9:0.129534 10:0.228046 11:0.0481387 12:0.238491 13:0.028745 14:0.328262 15:0 16:0.102087 17:0.0262469 18:0.228046 19:0.0357167 20:0.0523341 21:0.312799 22:0.193671 23:0.328262 24:0 25:0.0068058 26:0.00678157 27:0.0378266 28:0.148156 29:0.0507565 30:0.328262 31:0.109394 32:0.328262 33:0 34:0.0408348 35:0.0406894 36:0.136054 37:0.147543 38:0.019662 39:0.162867 40:0.0317903 41:0.346338 42:0 43:0.129371 44:0.0332618 45:0.147543 46:0 47:0 48:0 49:0 50:0 51:0 52:0 53:0 54:0 55:0.346338 56:0.0665228 57:0.346338 58:0.0761542 59:0.346338 60:0 61:0.0517485 62:0.0515643 63:0.346338 64:0.346338 65:0.109729 66:0.199962 67:0 68:0 69:0 70:0 71:0 72:0.346338 73:0 74:0 75:0 76:0 77:0 78:0 79:0 80:0 81:0 82:0 83:0 84:0 85:0 86:0 87:0 88:0 89:0 90:0 91:0.49352 92:0.0554539 93:0.101055 94:0 95:0 96:0 97:0 98:0 99:0.49352 100:0.49352 101:0 102:0 103:0 104:0.0426627 105:0.0048224 106:0.0751942 107:0.00602263 108:0.49352 109:0.0199514 110:0.040127 111:0.328078 112:0.202627 113:0.328241 114:0 115:0 116:0.0151374 117:0.0262986 118:0.328241 119:0.00881621 120:0.146943 121:0.109852 122:0.328241 123:0 124:0 125:0.0908244 126:0.31744 127:0.0718213 128:0.079275 129:0.230295 130:0.0272856 131:0.328241 132:0 133:0.0193238 134:0.0125127 135:0.0555421 136:0.321848 137:0.031604 138:0.0184214 139:0.0152094 140:0.113632 141:0 142:0 143:0.0363297 144:0.288357 145:0.321642 146:0.0397414 147:0.109556 148:0.0249357 149:0.234794 150:0 151:0 152:0.0451525 153:0.321642 154:0.321642 155:0.129498 156:0.235988 157:0 158:0 159:0 160:0 161:0 162:0.321642 163:0.321642 164:0.0647601 165:0.036731 166:0.00320706 167:0.0252275 168:0 169:0 170:0.018061 171:0.321642 172:0.321642 173:0.0844494 174:0.108081 175:0 176:0 177:0 178:0 179:0 180:0.321642 181:0.336804 182:0.0419872 183:0.0765142 184:0 185:0 186:0 187:0 188:0 189:0.336804 190:0.336804 191:0 192:0 193:0 194:0.104386 195:0.0334719 196:0.0569337 197:0.00456006 198:0.336804 199:0.336804 200:0.0535823 201:0.097644 202:0 203:0 204:0 205:0 206:0 207:0.336804 208:0.336804 209:0.0493012 210:0.104233 211:0.0243193 212:0.19013 213:0.0572795 214:0.0227735 215:0.00182402 216:0.336804 217:0.317769 218:0.101227 219:0.0423076 220:0 221:0.317769 222:0 223:0.0960364 224:0.0320937 225:0.317769 226:0.317769 227:0.157067 228:0.0110308 229:0 230:0.00242806 231:0 232:0 233:0 234:0.317769 235:0.317769 236:0.0653165 237:0 238:0 239:0.130251 240:0 241:0.0720273 242:0.0240702 243:0.317769 244:0.317769 245:0.1178 246:0.00827314 247:0 248:0 249:0 250:0 251:0 252:0.317769 253:0.330924 254:0.234021 255:0.0359588 256:0 257:0 258:0 259:0 260:0 261:0.330924 262:0.330924 263:0.141656 264:0.0448451 265:0 266:0 267:0 268:0 269:0 270:0.330924 271:0.330924 272:0.175516 273:0.0269691 274:0 275:0 276:0 277:0 278:0 279:0.330924 280:0.330924 281:0.101539 282:0.0250639 283:0 284:0 285:0 286:0 287:0 288:0.330924 289:0.339984 290:0.11079 291:0.201894 292:0 293:0 294:0 295:0 296:0 297:0.339984 298:0.339984 299:0.132354 300:0.265665 301:0.0233569 302:0.0726957 303:0.0146171 304:0 305:0 306:0.339984 307:0.339984 308:0.0443158 309:0.0807575 310:0 311:0 312:0 313:0 314:0 315:0.337348 316:0.27693 317:0.048061 318:0.0916615 319:0 320:0 321:0 322:0 323:0 324:0.248581 
0 1 0 1 0 0 1 1:0.135984 2:0.0258295 3:0.190031 4:0.155359 5:0.245415 6:0 7:0.0170959 8:0.00571318 9:0.135984 10:0.239403 11:0.0193721 12:0.123679 13:0.174747 14:0.312746 15:0 16:0.102576 17:0.034279 18:0.239403 19:0.0353112 20:0.0572687 21:0.312746 22:0.230905 23:0.312746 24:0 25:0.0140934 26:0.00470979 27:0.0353112 28:0.143278 29:0.0155716 30:0.268915 31:0.312746 32:0.312746 33:0 34:0.0845605 35:0.0282587 36:0.128417 37:0.141242 38:0 39:0.0255241 40:0.139981 41:0.339931 42:0 43:0.118536 44:0.0396126 45:0.141242 46:0 47:0 48:0 49:0 50:0 51:0 52:0 53:0 54:0 55:0.339931 56:0.0318433 57:0.249451 58:0.339931 59:0.339931 60:0 61:0.0977175 62:0.0326556 63:0.339931 64:0.339931 65:0.0939164 66:0.171146 67:0 68:0 69:0 70:0 71:0 72:0.339931 73:0 74:0 75:0 76:0 77:0 78:0 79:0 80:0 81:0 82:0 83:0 84:0 85:0 86:0 87:0 88:0 89:0 90:0 91:0.491848 92:0.0705051 93:0.128483 94:0 95:0 96:0 97:0 98:0 99:0.491848 100:0.491848 101:0 102:0 103:0 104:0.0320551 105:0 106:0.066542 107:0.0222372 108:0.491848 109:0.00986326 110:0.0829022 111:0.328584 112:0.174038 113:0.328584 114:0 115:0.023125 116:0.00772798 117:0.00986326 118:0.328584 119:0.00991444 120:0.164265 121:0.159476 122:0.328584 123:0 124:0.13875 125:0.0463679 126:0.297289 127:0.0629432 128:0.0381498 129:0.186769 130:0.155172 131:0.328584 132:0.0300275 133:0.0246081 134:0.00309119 135:0.0514296 136:0.328584 137:0.022276 138:0.00326366 139:0 140:0.120001 141:0 142:0.0554999 143:0.0185471 144:0.248584 145:0.323866 146:0.0401897 147:0.127985 148:0.0664612 149:0.218949 150:0 151:0.0634882 152:0.0212167 153:0.323866 154:0.323866 155:0.118533 156:0.216005 157:0 158:0 159:0 160:0 161:0 162:0.323866 163:0.323866 164:0.0627429 165:0.0322287 166:0 167:0.0277064 168:0 169:0.0253953 170:0.00848667 171:0.323866 172:0.323866 173:0.0865652 174:0.0903129 175:0 176:0 177:0 178:0 179:0 180:0.323866 181:0.334664 182:0.0545599 183:0.0994257 184:0 185:0 186:0 187:0 188:0 189:0.334664 190:0.334664 191:0 192:0 193:0 194:0.107673 195:0 196:0.0514931 197:0.0172081 198:0.334664 199:0.334664 200:0.029768 201:0.0488499 202:0 203:0 204:0 205:0 206:0 207:0.334664 208:0.334664 209:0.0830872 210:0.117259 211:0 212:0.221039 213:0 214:0.0205972 215:0.00688325 216:0.334664 217:0.32297 218:0.0553193 219:0.0301463 220:0.0326774 221:0.32297 222:0.0703149 223:0.0669834 224:0 225:0.32297 226:0.32297 227:0.100602 228:0 229:0 230:0.00142205 231:0 232:0 233:0 234:0.32297 235:0.32297 236:0.0617129 237:0 238:0 239:0.13968 240:0.0353525 241:0.0502375 242:0 243:0.32297 244:0.32297 245:0.0793742 246:0 247:0 248:0 249:0 250:0 251:0 252:0.32297 253:0.331745 254:0.208291 255:0.0130922 256:0 257:0 258:0 259:0 260:0 261:0.331745 262:0.331745 263:0.17475 264:0.0174563 265:0 266:0 267:0 268:0 269:0 270:0.331745 271:0.331745 272:0.156218 273:0.00981915 274:0 275:0 276:0 277:0 278:0 279:0.331745 280:0.331745 281:0.131062 282:0.0130922 283:0 284:0 285:0 286:0 287:0 288:0.331745 289:0.327133 290:0.0277981 291:0.0252217 292:0 293:0 294:0 295:0 296:0 297:0.327133 298:0.327133 299:0.188621 300:0.292398 301:0 302:0.0795101 303:0 304:0 305:0 306:0.327133 307:0.327133 308:0.0164707 309:0.0109384 310:0 311:0 312:0 313:0 314:0 315:0.327133 316:0.327133 317:0.0656067 318:0.111001 319:0 320:0 321:0 322:0 323:0 324:0.31906 
0 0 0 0 0 1 0 1:0.131579 2:0.0562173 3:0.225511 4:0.0141731 5:0.316629 6:0 7:0.0165421 8:0.0055281 9:0.131579 10:0.231648 11:0.0339576 12:0.161691 13:0.0431556 14:0.319532 15:0 16:0.0992528 17:0.0331686 18:0.231648 19:0.0351866 20:0.0653175 21:0.317014 22:0.176978 23:0.319532 24:0 25:0.00661685 26:0.0065714 27:0.0379788 28:0.153306 29:0.0789266 30:0.307185 31:0.260349 32:0.319532 33:0 34:0.0397011 35:0.0394284 36:0.140754 37:0.13185 38:0.00325295 39:0.0541235 40:0.0447777 41:0.35747 42:0 43:0.110654 44:0.0369787 45:0.13185 46:0 47:0 48:0 49:0 50:0 51:0 52:0 53:0 54:0 55:0.35747 56:0.184436 57:0.236822 58:0.235831 59:0.35747 60:0 61:0.0442616 62:0.0439575 63:0.35747 64:0.35747 65:0.16366 66:0 67:0 68:0 69:0 70:0 71:0 72:0.35747 73:0 74:0 75:0 76:0 77:0 78:0 79:0 80:0 81:0 82:0 83:0 84:0 85:0 86:0 87:0 88:0 89:0 90:0 91:0.435112 92:0.17636 93:0.0124642 94:0 95:0 96:0 97:0 98:0 99:0.435112 100:0.435112 101:0.435112 102:0.0747849 103:0 104:0.0476226 105:0.0279125 106:0.0906922 107:0.0303078 108:0.435112 109:0.0146388 110:0.0669977 111:0.312622 112:0.21506 113:0.312622 114:0 115:0 116:0.0132999 117:0.023156 118:0.30938 119:0.132739 120:0.141117 121:0.235024 122:0.312622 123:0 124:0 125:0.0797992 126:0.271093 127:0.0800409 128:0.0575475 129:0.230382 130:0.0629236 131:0.312622 132:0 133:0.0156179 134:0.0150869 135:0.0723668 136:0.312622 137:0.0762831 138:0.0366799 139:0.0180327 140:0.0974557 141:0 142:0 143:0.0319197 144:0.312622 145:0.318596 146:0.214878 147:0.0496206 148:0.0795518 149:0.193176 150:0 151:0 152:0.0372086 153:0.318596 154:0.318596 155:0.205799 156:0 157:0 158:0 159:0 160:0 161:0 162:0.318596 163:0.318596 164:0.141097 165:0.00858634 166:0.00378839 167:0.0240357 168:0 169:0 170:0.0148834 171:0.318596 172:0.318596 173:0.164897 174:0.0280476 175:0 176:0 177:0 178:0 179:0 180:0.318596 181:0.317012 182:0.109679 183:0.00658495 184:0 185:0 186:0 187:0 188:0 189:0.317012 190:0.317012 191:0.278304 192:0.0395097 193:0 194:0.125493 195:0.026113 196:0.0479137 197:0.0160119 198:0.317012 199:0.317012 200:0.0527959 201:0.0122865 202:0 203:0 204:0 205:0 206:0 207:0.317012 208:0.317012 209:0.201956 210:0.018402 211:0.045949 212:0.190876 213:0.0104452 214:0.00798561 215:0.00266866 216:0.317012 217:0.309171 218:0.0954772 219:0.159145 220:0.0100414 221:0.309171 222:0 223:0.0773616 224:0.0483796 225:0.309171 226:0.309171 227:0.120611 228:0.147045 229:0 230:0.00031279 231:0 232:0 233:0 234:0.309171 235:0.309171 236:0.0681245 237:0.108935 238:0 239:0.133711 240:0 241:0.0580212 242:0.0362847 243:0.309171 244:0.309171 245:0.0802216 246:0.109952 247:0 248:0 249:0 250:0 251:0 252:0.309171 253:0.340331 254:0.166285 255:0.0301639 256:0 257:0 258:0 259:0 260:0 261:0.340331 262:0.340331 263:0.238648 264:0.0801786 265:0 266:0 267:0 268:0 269:0 270:0.340331 271:0.340331 272:0.069339 273:0.0165832 274:0 275:0 276:0 277:0 278:0 279:0.340331 280:0.340331 281:0.0954593 282:0.0320715 283:0 284:0 285:0 286:0 287:0 288:0.280455 289:0.38068 290:0.0858 291:0.0374016 292:0 293:0 294:0 295:0 296:0 297:0.38068 298:0.38068 299:0.297851 300:0.0125971 301:0.0489821 302:0.0594762 303:0 304:0 305:0 306:0.38068 307:0.355352 308:0.03432 309:0.0149606 310:0 311:0 312:0 313:0 314:0 315:0.207681 316:0.298671 317:0.0518818 318:0 319:0 320:0 321:0 322:0 323:0 324:0.224171 
0 1 0 0.88720458837300964 0 0 1 1:0.0692827 2:0.168918 3:0.297495 4:0.0172794 5:0.314486 6:0.00978342 7:0.00791764 8:0.0116229 9:0.0692827 10:0.149964 11:0.14673 12:0.232403 13:0.0125235 14:0.32764 15:0.0587005 16:0.0475058 17:0.0697376 18:0.149964 19:0.010778 20:0.0783718 21:0.32764 22:0.198093 23:0.32764 24:0.00391337 25:0.00188732 26:0.00918685 27:0.010778 28:0.102729 29:0.0776712 30:0.316923 31:0.189407 32:0.32764 33:0.0234802 34:0.0113239 35:0.0551211 36:0.0873255 37:0.0991902 38:0.0268942 39:0.0833701 40:0.0110529 41:0.352372 42:0.0654097 43:0.0529356 44:0.0777084 45:0.0991902 46:0 47:0 48:0 49:0 50:0 51:0 52:0 53:0 54:0 55:0.352372 56:0.096962 57:0.344868 58:0.158304 59:0.352372 60:0.0261639 61:0.0126182 62:0.0614212 63:0.344451 64:0.352372 65:0.105725 66:0.192666 67:0 68:0 69:0 70:0.0880983 71:0.048344 72:0.352372 73:0 74:0 75:0 76:0 77:0 78:0 79:0 80:0 81:0 82:0 83:0 84:0 85:0 86:0 87:0 88:0 89:0 90:0 91:0.480582 92:0.103237 93:0.188132 94:0 95:0 96:0 97:0.115415 98:0.0633342 99:0.480582 100:0.480582 101:0.0295315 102:0.0538159 103:0 104:0.0265885 105:0 106:0.0365443 107:0.0465616 108:0.480582 109:0.0160408 110:0.0530614 111:0.31343 112:0.294317 113:0.31343 114:0 115:0.00175815 116:0.0224514 117:0.0160408 118:0.31343 119:0.0258461 120:0.128826 121:0.214833 122:0.31343 123:0 124:0.0105489 125:0.134708 126:0.297299 127:0.0850983 128:0.0489419 129:0.134809 130:0.0973391 131:0.31343 132:0 133:0.0210495 134:0.0157799 135:0.0606184 136:0.31343 137:0.0513888 138:0.00187292 139:0.019935 140:0.0948427 141:0 142:0.00421957 143:0.0538833 144:0.300509 145:0.312359 146:0.0761851 147:0.167618 148:0.0718053 149:0.21186 150:0 151:0.00506387 152:0.0646649 153:0.312359 154:0.312359 155:0.141051 156:0.257041 157:0 158:0 159:0 160:0.117534 161:0.0644971 162:0.312359 163:0.312359 164:0.0597965 165:0.0477122 166:0.00477085 167:0.0248897 168:0 169:0.00202555 170:0.025866 171:0.312359 172:0.312359 173:0.0602448 174:0.102816 175:0 176:0 177:0 178:0.0470137 179:0.0257989 180:0.312359 181:0.339346 182:0.0801591 183:0.146076 184:0 185:0 186:0 187:0.0896145 188:0.0491761 189:0.339346 190:0.339346 191:0.0229298 192:0.0417855 193:0 194:0.0365576 195:0 196:0.028375 197:0.036153 198:0.339346 199:0.339346 200:0.0479274 201:0.0873392 202:0 203:0 204:0 205:0.0358458 206:0.0196704 207:0.339346 208:0.339346 209:0.0658603 210:0.120018 211:0 212:0.0274182 213:0 214:0.01135 215:0.0144612 216:0.339346 217:0.306976 218:0.129341 219:0.00890104 220:0.00600891 221:0.306976 222:0 223:0.0951306 224:0.031791 225:0.306976 226:0.306976 227:0.240273 228:0 229:0 230:0 231:0 232:0 233:0 234:0.306976 235:0.306976 236:0.0970061 237:0 238:0 239:0.129023 240:0 241:0.071348 242:0.0238432 243:0.306976 244:0.306976 245:0.180205 246:0 247:0 248:0 249:0 250:0 251:0 252:0.306976 253:0.350457 254:0.151778 255:0 256:0 257:0 258:0 259:0 260:0 261:0.350457 262:0.350457 263:0.0172676 264:0 265:0 266:0 267:0 268:0 269:0 270:0.350457 271:0.350457 272:0.113833 273:0 274:0 275:0 276:0 277:0 278:0 279:0.316697 280:0.350457 281:0.0129507 282:0 283:0 284:0 285:0 286:0 287:0 288:0.350457 289:0.337642 290:0.0421485 291:0.076808 292:0 293:0 294:0 295:0 296:0 297:0.337642 298:0.337642 299:0.150615 300:0.274469 301:0 302:0 303:0 304:0 305:0 306:0.337642 307:0.337642 308:0.0168594 309:0.0307232 310:0 311:0 312:0 313:0 314:0 315:0.337642 316:0.309985 317:0.0602461 318:0.109788 319:0 320:0 321:0 322:0 323:0 324:0.306458 
1 1 1 1 1 1 1 1:0.13831 2:0.0338193 3:0.22355 4:0.141244 5:0.240726 6:0 7:0.0171926 8:0.00574549 9:0.13831 10:0.24138 11:0.0390017 12:0.176911 13:0.126707 14:0.32508 15:0 16:0.103156 17:0.0344729 18:0.24138 19:0.0357702 20:0.0601614 21:0.32508 22:0.215508 23:0.32508 24:0.00807836 25:0.0071965 26:0.0022982 27:0.0357702 28:0.1369 29:0.0757767 30:0.291089 31:0.222578 32:0.32508 33:0.0431505 34:0.043179 35:0.0137892 36:0.117424 37:0.141234 38:0.0179082 39:0.0773464 40:0.0876149 41:0.347701 42:0 43:0.11853 44:0.0396106 45:0.141234 46:0 47:0 48:0 49:0 50:0 51:0 52:0 53:0 54:0 55:0.347701 56:0.138872 57:0.330804 58:0.182919 59:0.347701 60:0.047681 61:0.0496142 62:0.0158443 63:0.343069 64:0.347701 65:0.0934027 66:0.17021 67:0 68:0 69:0 70:0 71:0 72:0.347701 73:0 74:0 75:0 76:0 77:0 78:0 79:0 80:0 81:0 82:0 83:0 84:0 85:0 86:0 87:0 88:0 89:0 90:0 91:0.487398 92:0.0277226 93:0.0505196 94:0 95:0 96:0 97:0 98:0 99:0.487398 100:0.487398 101:0.194096 102:0 103:0 104:0.0311772 105:0.0521041 106:0.0149737 107:0 108:0.487398 109:0.0142221 110:0.0487524 111:0.324221 112:0.218903 113:0.324221 114:0.0281367 115:0.000971696 116:0 117:0.0142221 118:0.312276 119:0.130717 120:0.131268 121:0.0849183 122:0.324221 123:0.140166 124:0.00583017 125:0 126:0.253033 127:0.0898235 128:0.0139392 129:0.161708 130:0.227728 131:0.324221 132:0.0280053 133:0.0171569 134:0 135:0.0456063 136:0.324221 137:0.114798 138:0.0181027 139:0.00368737 140:0.144504 141:0.0632299 142:0.00233207 143:0 144:0.26284 145:0.312616 146:0.160808 147:0.167039 148:0.0292925 149:0.25035 150:0.0608925 151:0.00270472 152:0 153:0.312616 154:0.312616 155:0.114711 156:0.20904 157:0 158:0 159:0 160:0 161:0 162:0.312616 163:0.312616 164:0.143291 165:0.0616363 166:0.000966029 167:0.0359645 168:0.0262337 169:0.00108189 170:0 171:0.312616 172:0.312616 173:0.0600172 174:0.085232 175:0 176:0 177:0 178:0 179:0 180:0.312616 181:0.333463 182:0.0215168 183:0.0392106 184:0 185:0 186:0 187:0 188:0 189:0.333463 190:0.333463 191:0.0850731 192:0 193:0 194:0.107229 195:0.0404405 196:0.0116218 197:0 198:0.333463 199:0.333463 200:0.0351636 201:0.0640793 202:0 203:0 204:0 205:0 206:0 207:0.333463 208:0.333463 209:0.0740222 210:0.123496 211:0 212:0.2413 213:0.0161762 214:0.00464871 215:0 216:0.333463 217:0.322684 218:0.140791 219:0.0158295 220:0.0529726 221:0.322684 222:0.0716065 223:0.0806057 224:0.0374171 225:0.250343 226:0.322684 227:0.174588 228:0.00753969 229:0 230:0.000943824 231:0 232:0 233:0 234:0.322684 235:0.322684 236:0.155932 237:0 238:0 239:0.111858 240:0.0575709 241:0.0604543 242:0.0498894 243:0.267147 244:0.322684 245:0.145268 246:0.00565477 247:0 248:0 249:0 250:0 251:0 252:0.322684 253:0.337219 254:0.225894 255:0.0185032 256:0 257:0 258:0 259:0 260:0 261:0.337219 262:0.337219 263:0.0647232 264:0.00740128 265:0 266:0 267:0 268:0 269:0 270:0.337219 271:0.337219 272:0.16942 273:0.0138774 274:0 275:0 276:0 277:0 278:0 279:0.337219 280:0.337219 281:0.0485424 282:0.00555096 283:0 284:0 285:0 286:0 287:0 288:0.337219 289:0.333322 290:0.0772722 291:0.140815 292:0 293:0 294:0 295:0 296:0 297:0.333322 298:0.333322 299:0.158493 300:0.312555 301:0 302:0.103307 303:0 304:0 305:0 306:0.333322 307:0.333322 308:0.0309089 309:0.0563259 310:0 311:0 312:0 313:0 314:0 315:0.333322 316:0.274687 317:0.0586646 318:0.110861 319:0 320:0 321:0 322:0 323:0 324:0.274687 
1 1 1 1 1 1 0 1:0.133215 2:0.0444193 3:0.217306 4:0.137183 5:0.239158 6:0 7:0.0167477 8:0.0055968 9:0.133215 10:0.234527 11:0.0266239 12:0.162662 13:0.225427 14:0.308736 15:0 16:0.100486 17:0.0335808 18:0.234527 19:0.0380145 20:0.0645715 21:0.308736 22:0.19695 23:0.308736 24:0 25:0.00669908 26:0.0086413 27:0.0361265 28:0.146746 29:0.0507116 30:0.267696 31:0.308736 32:0.308736 33:0 34:0.0401945 35:0.0518478 36:0.11915 37:0.136295 38:0 39:0.060052 40:0.209148 41:0.327795 42:0 43:0.114384 44:0.0382253 45:0.136295 46:0 47:0 48:0 49:0 50:0 51:0 52:0 53:0 54:0 55:0.327795 56:0.238968 57:0.1949 58:0.327795 59:0.327795 60:0 61:0.0457537 62:0.0590188 63:0.327795 64:0.327795 65:0.211804 66:0 67:0 68:0 69:0 70:0 71:0 72:0.327795 73:0 74:0 75:0 76:0 77:0 78:0 79:0 80:0 81:0 82:0 83:0 84:0 85:0 86:0 87:0 88:0 89:0 90:0 91:0.436634 92:0.0875638 93:0.0234839 94:0 95:0 96:0 97:0 98:0 99:0.436634 100:0.436634 101:0.365456 102:0.274944 103:0 104:0.0769989 105:0 106:0.0936151 107:0.0312846 108:0.436634 109:0.0302601 110:0.0676764 111:0.323447 112:0.177482 113:0.323447 114:0 115:0 116:0.0195484 117:0.0174082 118:0.323447 119:0.101352 120:0.138189 121:0.211426 122:0.323447 123:0 124:0 125:0.11729 126:0.240506 127:0.0891994 128:0.0465867 129:0.174538 130:0.173876 131:0.323447 132:0.0177288 133:0.0201692 134:0.0145595 135:0.0544578 136:0.323447 137:0.0636636 138:0.0454217 139:0.0349391 140:0.0993137 141:0 142:0 143:0.0469161 144:0.302633 145:0.304501 146:0.288869 147:0.0385425 148:0.0645328 149:0.194453 150:0 151:0 152:0.0528601 153:0.304501 154:0.304501 155:0.254094 156:0 157:0 158:0 159:0 160:0 161:0 162:0.304501 163:0.304501 164:0.144327 165:0.0233897 166:0.0088922 167:0.0199166 168:0 169:0 170:0.021144 171:0.304501 172:0.304501 173:0.18977 174:0.0511273 175:0 176:0 177:0 178:0 179:0 180:0.304501 181:0.322627 182:0.0609113 183:0.0119388 184:0 185:0 186:0 187:0 188:0 189:0.322627 190:0.322627 191:0.185791 192:0.139776 193:0 194:0.13757 195:0 196:0.0475921 197:0.0159045 198:0.322627 199:0.322627 200:0.0952029 201:0.0190152 202:0 203:0 204:0 205:0 206:0 207:0.322627 208:0.322627 209:0.206925 210:0.0350338 211:0.0456406 212:0.170575 213:0 214:0.00793202 215:0.00265075 216:0.322627 217:0.309182 218:0.0772408 219:0.110939 220:0.0435039 221:0.309182 222:0.027824 223:0.0992579 224:0.0331702 225:0.309182 226:0.309182 227:0.126702 228:0.175884 229:0 230:0.000944756 231:0 232:0 233:0 234:0.309182 235:0.309182 236:0.0544235 237:0.0719967 238:0 239:0.130112 240:0.00463734 241:0.0744434 242:0.0248777 243:0.309182 244:0.309182 245:0.0950263 246:0.131913 247:0 248:0 249:0 250:0 251:0 252:0.309182 253:0.331882 254:0.0944403 255:0.0792965 256:0 257:0 258:0 259:0 260:0 261:0.331882 262:0.331882 263:0.255879 264:0.147457 265:0 266:0 267:0 268:0 269:0 270:0.331882 271:0.331882 272:0.0469728 273:0.0450297 274:0 275:0 276:0 277:0 278:0 279:0.331882 280:0.331882 281:0.102351 282:0.0589828 283:0 284:0 285:0 286:0 287:0 288:0.324116 289:0.370613 290:0.206669 291:0.0580444 292:0 293:0 294:0 295:0 296:0 297:0.370613 298:0.370613 299:0.348649 300:0.0127617 301:0.0496224 302:0.0482872 303:0 304:0 305:0 306:0.370613 307:0.330561 308:0.0665233 309:0.0232178 310:0 311:0 312:0 313:0 314:0 315:0.2144 316:0.275242 317:0.063402 318:0 319:0 320:0 321:0 322:0 323:0 324:0.185225 
1 1 1 1 1 1 1 1:0.134119 2:0.0254751 3:0.184935 4:0.194098 5:0.210164 6:0 7:0.0168614 8:0.0056348 9:0.134119 10:0.236119 11:0.0191063 12:0.160593 13:0.15552 14:0.308506 15:0 16:0.101168 17:0.0338088 18:0.236119 19:0.0348267 20:0.0505755 21:0.305663 22:0.268959 23:0.308506 24:0 25:0.0155547 26:0.00225657 27:0.0348267 28:0.134743 29:0.0763247 30:0.273219 31:0.308506 32:0.308506 33:0 34:0.093328 35:0.0135394 36:0.107159 37:0.13353 38:0 39:0.0711359 40:0.0935454 41:0.342773 42:0 43:0.112064 44:0.0374499 45:0.13353 46:0 47:0 48:0 49:0 50:0 51:0 52:0 53:0 54:0 55:0.342773 56:0.247471 57:0.211521 58:0.283676 59:0.342773 60:0 61:0.103379 62:0.0149975 63:0.342773 64:0.342773 65:0.175544 66:0 67:0 68:0 69:0 70:0 71:0 72:0.342773 73:0 74:0 75:0 76:0 77:0 78:0 79:0 80:0 81:0 82:0 83:0 84:0 85:0 86:0 87:0 88:0 89:0 90:0 91:0.434543 92:0.164203 93:0.0565353 94:0 95:0 96:0 97:0 98:0 99:0.434543 100:0.434543 101:0.38388 102:0.22009 103:0 104:0.0737742 105:0 106:0.0896945 107:0.0299744 108:0.434543 109:0.0108238 110:0.0756708 111:0.340888 112:0.103515 113:0.340888 114:0 115:0.0277582 116:8.34128e-06 117:0.0108238 118:0.303945 119:0.203105 120:0.116605 121:0.159571 122:0.340888 123:0 124:0.166549 125:5.00477e-05 126:0.172835 127:0.0728111 128:0.0542952 129:0.24907 130:0.0481598 131:0.340888 132:0.0184193 133:0.032058 134:0.00700603 135:0.0492211 136:0.336143 137:0.10645 138:0.0480492 139:0 140:0.134966 141:0 142:0.0666197 143:2.00191e-05 144:0.241443 145:0.304505 146:0.304505 147:0.033653 148:0.0625004 149:0.210758 150:0 151:0.073037 152:2.19474e-05 153:0.304505 154:0.304505 155:0.217963 156:0 157:0 158:0 159:0 160:0 161:0 162:0.304505 163:0.304505 164:0.15703 165:0.0299162 166:0 167:0.0291332 168:0 169:0.0292148 170:8.77897e-06 171:0.304505 172:0.304505 173:0.173833 174:0.0516867 175:0 176:0 177:0 178:0 179:0 180:0.304505 181:0.318621 182:0.105955 183:0.0307029 184:0 185:0 186:0 187:0 188:0 189:0.318621 190:0.318621 191:0.208475 192:0.119525 193:0 194:0.138472 195:0 196:0.0487108 197:0.0162783 198:0.318621 199:0.318621 200:0.111561 201:0.0225428 202:0 203:0 204:0 205:0 206:0.0046976 207:0.318621 208:0.318621 209:0.218987 210:0.0441886 211:0.0234044 212:0.168756 213:0 214:0.00811847 215:0.0308986 216:0.318621 217:0.307869 218:0.0446121 219:0.105519 220:0.0142463 221:0.307869 222:0.027373 223:0.097649 224:0.0326326 225:0.307869 226:0.307869 227:0.130167 228:0.208145 229:0 230:0.00221711 231:0 232:0 233:0 234:0.307869 235:0.307869 236:0.0273197 237:0.0436857 238:0 239:0.128003 240:0.00456217 241:0.0732367 242:0.0244744 243:0.307869 244:0.307869 245:0.0976256 246:0.156109 247:0 248:0 249:0 250:0 251:0 252:0.307869 253:0.328291 254:0.117104 255:0.119452 256:0 257:0 258:0 259:0 260:0 261:0.328291 262:0.328291 263:0.248321 264:0.147611 265:0 266:0 267:0 268:0 269:0 270:0.328291 271:0.328291 272:0.0639458 273:0.0751311 274:0 275:0 276:0 277:0 278:0 279:0.328291 280:0.328291 281:0.0993285 282:0.0590445 283:0 284:0 285:0 286:0 287:0 288:0.328291 289:0.361904 290:0.217266 291:0.0577175 292:0 293:0 294:0 295:0 296:0.00878673 297:0.361904 298:0.361904 299:0.361668 300:0.0256338 301:0.0247218 302:0.0460518 303:0 304:0 305:0.0527204 306:0.361904 307:0.319342 308:0.0675436 309:0.023087 310:0 311:0 312:0 313:0 314:0.00146446 315:0.230055 316:0.289867 317:0.0694172 318:0 319:0 320:0 321:0 322:0 323:0.00878673 324:0.189681 
1 1 0 1 0 1 0.36485106333838091 1:0.142153 2:0.0460488 3:0.130893 4:0.221949 5:0.225305 6:0 7:0.0171308 8:0.00572483 9:0.142153 10:0.242248 11:0.0345366 12:0.130716 13:0.167905 14:0.315091 15:0 16:0.102785 17:0.034349 18:0.242248 19:0.0363651 20:0.0274777 21:0.228738 22:0.315091 23:0.315091 24:0 25:0.0141222 26:0.0047194 27:0.0363651 28:0.157897 29:0.0467966 30:0.250173 31:0.315091 32:0.315091 33:0 34:0.0847331 35:0.0283164 36:0.105849 37:0.135312 38:0 39:0.0720854 40:0.094794 41:0.346047 42:0 43:0.11356 44:0.0379497 45:0.135312 46:0 47:0 48:0 49:0 50:0 51:0 52:0 53:0 54:0 55:0.346047 56:0.217613 57:0.214344 58:0.287463 59:0.346047 60:0 61:0.0936155 62:0.0312847 63:0.328165 64:0.346047 65:0.198228 66:0 67:0 68:0 69:0 70:0 71:0 72:0.346047 73:0 74:0 75:0 76:0 77:0 78:0 79:0 80:0 81:0 82:0 83:0 84:0 85:0 86:0 87:0 88:0 89:0 90:0 91:0.438152 92:0.0929269 93:0.023253 94:0 95:0 96:0 97:0 98:0 99:0.438152 100:0.438152 101:0.359249 102:0.272241 103:0 104:0.0762419 105:0 106:0.0926947 107:0.030977 108:0.438152 109:0.009718 110:0.0391026 111:0.319521 112:0.24908 113:0.319521 114:0 115:0.0227844 116:0.00761417 117:0.009718 118:0.319521 119:0.101309 120:0.119562 121:0.176963 122:0.319521 123:0 124:0.136706 125:0.045685 126:0.194141 127:0.072932 128:0.0474674 129:0.23218 130:0.175595 131:0.319521 132:0.0395536 133:0.030291 134:0.0101227 135:0.0499865 136:0.319521 137:0.0650027 138:0.0506217 139:0.00163143 140:0.111639 141:0 142:0.0546825 143:0.018274 144:0.292568 145:0.307646 146:0.271565 147:0.0341179 148:0.0633638 149:0.209282 150:0 151:0.0601396 152:0.0200977 153:0.307646 154:0.307646 155:0.244371 156:0 157:0 158:0 159:0 160:0 161:0 162:0.307646 163:0.307646 164:0.121058 165:0.0124965 166:0 167:0.0262451 168:0 169:0.0240558 170:0.00803906 171:0.307646 172:0.307646 173:0.185411 174:0.0526547 175:0 176:0 177:0 178:0 179:0 180:0.307646 181:0.321317 182:0.0645503 183:0.0120213 184:0 185:0 186:0 187:0 188:0 189:0.321317 190:0.321317 191:0.185724 192:0.140743 193:0 194:0.1425 195:0 196:0.0479213 197:0.0160145 198:0.321317 199:0.321317 200:0.111913 201:0.0320458 202:0 203:0 204:0 205:0 206:0 207:0.321317 208:0.321317 209:0.206301 210:0.0473316 211:0.0230251 212:0.174383 213:0 214:0.00798689 215:0.00266908 216:0.321317 217:0.308001 218:0.0705204 219:0.119287 220:0.0445416 221:0.308001 222:0.0440507 223:0.099348 224:0.0332003 225:0.308001 226:0.308001 227:0.117763 228:0.188309 229:0 230:0.000788011 231:0 232:0 233:0 234:0.308001 235:0.308001 236:0.04938 237:0.0789614 238:0 239:0.130771 240:0.00407146 241:0.074511 242:0.0249003 243:0.308001 244:0.308001 245:0.0883221 246:0.141232 247:0 248:0 249:0 250:0 251:0 252:0.308001 253:0.334577 254:0.0451205 255:0.0516992 256:0 257:0 258:0 259:0 260:0 261:0.334577 262:0.334577 263:0.245368 264:0.145868 265:0 266:0 267:0 268:0 269:0 270:0.334577 271:0.334577 272:0.026637 273:0.0344137 274:0 275:0 276:0 277:0 278:0 279:0.334577 280:0.334577 281:0.0981472 282:0.0583474 283:0 284:0 285:0 286:0 287:0 288:0.334577 289:0.361935 290:0.253908 291:0.0996415 292:0 293:0 294:0 295:0 296:0 297:0.361935 298:0.361935 299:0.335456 300:0.0252525 301:0.0243541 302:0.0469597 303:0 304:0 305:0 306:0.361935 307:0.334518 308:0.0857487 309:0.0398566 310:0 311:0 312:0 313:0 314:0 315:0.21018 316:0.290169 317:0.0596782 318:0 319:0 320:0 321:0 322:0 323:0 324:0.171035 
1 1 1 1 1 1 1 1:0.135155 2:0.049686 3:0.235517 4:0.107486 5:0.247663 6:0 7:0.0168005 8:0.00561446 9:0.135155 10:0.235875 11:0.0305528 12:0.135396 13:0.203219 14:0.299226 15:0 16:0.100803 17:0.0336867 18:0.235875 19:0.0338313 20:0.0675263 21:0.299226 22:0.256913 23:0.299226 24:0 25:0.00859649 26:0.00924497 27:0.0355134 28:0.126487 29:0.0762391 30:0.295648 31:0.299226 32:0.299226 33:0 34:0.045012 35:0.0309727 36:0.114832 37:0.139529 38:0 39:0.0234716 40:0.202344 41:0.329598 42:0 43:0.117098 44:0.0391322 45:0.139529 46:0 47:0 48:0 49:0 50:0 51:0 52:0 53:0 54:0 55:0.329598 56:0.127008 57:0.293894 58:0.329598 59:0.329598 60:0 61:0.0499163 62:0.0271316 63:0.32665 64:0.329598 65:0.0922745 66:0.168154 67:0 68:0 69:0 70:0 71:0 72:0.329598 73:0 74:0 75:0 76:0 77:0 78:0 79:0 80:0 81:0 82:0 83:0 84:0 85:0 86:0 87:0 88:0 89:0 90:0 91:0.431969 92:0.058749 93:0.0684324 94:0 95:0 96:0 97:0 98:0 99:0.431969 100:0.431969 101:0.396312 102:0.26997 103:0 104:0.049958 105:0.0341418 106:0.0489283 107:0.0718258 108:0.431969 109:0.0161207 110:0.0718788 111:0.292063 112:0.245912 113:0.292063 114:0 115:0.00935233 116:0.0348874 117:0.0198968 118:0.278826 119:0.232195 120:0.290755 121:0.228255 122:0.292063 123:0 124:0.0233808 125:0.0872186 126:0.227326 127:0.0548589 128:0.0437626 129:0.149109 130:0.202505 131:0.292063 132:0.0334537 133:0.0203428 134:0.0261656 135:0.0482438 136:0.282135 137:0.194347 138:0.0629084 139:0.0239634 140:0.111586 141:0 142:0.0175356 143:0.0654139 144:0.220225 145:0.306797 146:0.212674 147:0.21635 148:0.092601 149:0.168333 150:0 151:0.00669922 152:0.0249904 153:0.306797 154:0.306797 155:0.113447 156:0.206737 157:0 158:0 159:0 160:0 161:0 162:0.306797 163:0.306797 164:0.190938 165:0.0783834 166:0.00625056 167:0.0208008 168:0 169:0.00502442 170:0.0187428 171:0.306797 172:0.306797 173:0.0775449 174:0.0961777 175:0 176:0 177:0 178:0 179:0 180:0.306797 181:0.322465 182:0.0388013 183:0.0514787 184:0 185:0 186:0 187:0 188:0 189:0.322465 190:0.322465 191:0.197297 192:0.1344 193:0 194:0.126504 195:0.0300979 196:0.024358 197:0.0357571 198:0.322465 199:0.322465 200:0.0492514 201:0.0865469 202:0 203:0 204:0 205:0 206:0 207:0.322465 208:0.322465 209:0.0866708 210:0.124536 211:0 212:0.227704 213:0.0120392 214:0.00405967 215:0.00595952 216:0.322465 217:0.299656 218:0.105144 219:0.0147245 220:0.0649501 221:0.299656 222:0.0918741 223:0.0674042 224:0.0355953 225:0.299656 226:0.299656 227:0.259222 228:0.0108351 229:0 230:0.00103699 231:0 232:0 233:0 234:0.299656 235:0.299656 236:0.115083 237:0 238:0 239:0.131018 240:0.0440216 241:0.0505532 242:0.0474604 243:0.299656 244:0.299656 245:0.233629 246:0.00812633 247:0 248:0 249:0 250:0 251:0 252:0.299656 253:0.32476 254:0.274374 255:0.0354058 256:0 257:0 258:0 259:0 260:0 261:0.32476 262:0.32476 263:0.139477 264:0.0441555 265:0 266:0 267:0 268:0 269:0 270:0.32476 271:0.32476 272:0.209175 273:0.0265544 274:0 275:0 276:0 277:0 278:0 279:0.32476 280:0.32476 281:0.0999776 282:0.0246785 283:0 284:0 285:0 286:0 287:0 288:0.32476 289:0.339968 290:0.110312 291:0.201023 292:0 293:0 294:0 295:0 296:0 297:0.339968 298:0.339968 299:0.137263 300:0.256947 301:0 302:0.0870741 303:0 304:0 305:0 306:0.339968 307:0.339968 308:0.0441247 309:0.0804092 310:0 311:0 312:0 313:0 314:0 315:0.339968 316:0.263836 317:0.0487671 318:0.0900042 319:0 320:0 321:0 322:0 323:0 324:0.263836 
1 1 1 1 0 1 1 1:0.132339 2:0.0273673 3:0.14344 4:0.0540678 5:0.348697 6:0 7:0.0166376 8:0.00556 9:0.132339 10:0.232985 11:0.0197448 12:0.100451 13:0.0372057 14:0.351487 15:0 16:0.0998255 17:0.03336 18:0.232985 19:0.0343645 20:0.0251149 21:0.351487 22:0.085652 23:0.351487 24:0.00694644 25:0.00665503 26:0.002224 27:0.0343645 28:0.130425 29:0.0472132 30:0.351487 31:0.140507 32:0.351487 33:0.0416786 34:0.0399302 35:0.013344 36:0.114794 37:0.130444 38:0 39:0.0196789 40:0.0183046 41:0.36335 42:0 43:0.109474 44:0.0365844 45:0.130444 46:0 47:0 48:0 49:0 50:0 51:0 52:0 53:0 54:0 55:0.36335 56:0.104265 57:0.353836 58:0.128811 59:0.36335 60:0.045707 61:0.0437896 62:0.0146337 63:0.314862 64:0.36335 65:0.0862667 66:0.157206 67:0 68:0 69:0 70:0 71:0 72:0.36335 73:0 74:0 75:0 76:0 77:0 78:0 79:0 80:0 81:0 82:0 83:0 84:0 85:0 86:0 87:0 88:0 89:0 90:0 91:0.433693 92:0.135617 93:0.0678052 94:0 95:0 96:0 97:0 98:0 99:0.433693 100:0.433693 101:0.433693 102:0.137086 103:0 104:0.0223822 105:0.0627783 106:0.0718402 107:0.0619256 108:0.433693 109:0.0134034 110:0.048756 111:0.327327 112:0.11439 113:0.327327 114:0.0205779 115:0 116:0 117:0.0134034 118:0.289485 119:0.124674 120:0.267504 121:0.138434 122:0.327327 123:0.123467 124:0 125:0 126:0.243181 127:0.0445259 128:0.089572 129:0.32038 130:0.0864745 131:0.327327 132:0.0161461 133:0.0138911 134:0 135:0.042175 136:0.264104 137:0.12098 138:0.0332307 139:0.0300108 140:0.16948 141:0.049387 142:0 143:0 144:0.218059 145:0.307535 146:0.161411 147:0.218139 148:0.0594079 149:0.238665 150:0.0603425 151:0 152:0 153:0.307535 154:0.307535 155:0.11389 156:0.207543 157:0 158:0 159:0 160:0 161:0 162:0.307535 163:0.307535 164:0.158632 165:0.0648224 166:0.00784124 167:0.0331652 168:0.024137 169:0 170:0 171:0.307535 172:0.307535 173:0.0778474 174:0.0965529 175:0 176:0 177:0 178:0 179:0 180:0.307535 181:0.318768 182:0.0790595 183:0.0523841 184:0 185:0 186:0 187:0 188:0 189:0.318768 190:0.318768 191:0.260863 192:0.0700885 193:0 194:0.0987906 195:0.0646926 196:0.0382602 197:0.0396946 198:0.318768 199:0.318768 200:0.0567136 201:0.0880691 202:0 203:0 204:0 205:0 206:0 207:0.318768 208:0.318768 209:0.0948397 210:0.120272 211:0.0183325 212:0.221341 213:0.0321936 214:0.00719702 215:0.0109223 216:0.318768 217:0.299665 218:0.0836684 219:0.07928 220:0.0110961 221:0.299665 222:0.0374121 223:0.06566 224:0.0346742 225:0.299665 226:0.299665 227:0.271372 228:0.0105547 229:0.00184935 230:0.0054967 231:0 232:0 233:0 234:0.299665 235:0.299665 236:0.0701965 237:0 238:0 239:0.143759 240:0.028059 241:0.049245 242:0.0462323 243:0.299665 244:0.299665 245:0.252387 246:0.00791604 247:0 248:0 249:0 250:0 251:0 252:0.299665 253:0.317125 254:0.314608 255:0.0346969 256:0 257:0 258:0 259:0 260:0 261:0.317125 262:0.317125 263:0.136685 264:0.0432714 265:0 266:0 267:0 268:0 269:0 270:0.317125 271:0.317125 272:0.24635 273:0.0260227 274:0 275:0 276:0 277:0 278:0 279:0.317125 280:0.317125 281:0.0979759 282:0.0241844 283:0 284:0 285:0 286:0 287:0 288:0.317125 289:0.339092 290:0.110762 291:0.201844 292:0 293:0 294:0 295:0 296:0 297:0.339092 298:0.339092 299:0.132322 300:0.2656 301:0.0168963 302:0.089951 303:0 304:0 305:0 306:0.339092 307:0.339092 308:0.044305 309:0.0807377 310:0 311:0 312:0 313:0 314:0 315:0.339092 316:0.268266 317:0.0480493 318:0.091639 319:0 320:0 321:0 322:0 323:0 324:0.257136 
